# Weights
3.466854989528656006e-02,-7.210883498191833496e-02,5.401533842086791992e-02,1.322151720523834229e-02,1.815779507160186768e-02,1.872172206640243530e-02,8.276924490928649902e-02,-1.822372525930404663e-02,-3.646286949515342712e-02,-7.260806858539581299e-03,-6.119199097156524658e-03,6.311453878879547119e-03,5.728752911090850830e-02,-5.165411159396171570e-02,-8.008325099945068359e-02,-6.995321810245513916e-02
1.038333028554916382e-02,-1.912780106067657471e-03,-1.621200144290924072e-02,-1.818754523992538452e-02,2.190674841403961182e-02,-5.872547999024391174e-02,3.096592426300048828e-02,-7.734435796737670898e-02,4.008542001247406006e-02,-4.884409159421920776e-02,7.868488132953643799e-02,5.906283855438232422e-02,-8.080482482910156250e-02,-6.252388656139373779e-02,-7.012145966291427612e-02,4.002626240253448486e-02
-2.916169539093971252e-02,3.270342946052551270e-02,1.452192664146423340e-03,-3.227666020393371582e-02,-1.907042413949966431e-02,8.168086409568786621e-03,-3.490159660577774048e-02,1.352809369564056396e-02,-2.419510856270790100e-02,-2.048102766275405884e-02,-5.585188418626785278e-02,-3.843265399336814880e-02,2.114873379468917847e-02,-6.499689817428588867e-02,-5.257720872759819031e-02,-1.365824043750762939e-02
-4.025456309318542480e-02,8.304591476917266846e-02,-4.789638519287109375e-02,-4.565070569515228271e-02,-1.211199909448623657e-02,-3.324523568153381348e-03,-7.112650573253631592e-02,-8.540898561477661133e-03,-5.267811194062232971e-02,-5.262300372123718262e-03,1.700744032859802246e-04,2.329540252685546875e-02,6.785504519939422607e-02,-3.119166940450668335e-02,8.224022388458251953e-02,-1.685021817684173584e-02
-7.654717564582824707e-02,1.637338101863861084e-02,-3.829890117049217224e-02,6.500607728958129883e-02,-4.777646437287330627e-02,-1.696372032165527344e-02,7.951822876930236816e-02,-6.986775994300842285e-02,-6.457380205392837524e-02,3.594007343053817749e-02,4.048098623752593994e-02,-7.716216146945953369e-02,1.499321311712265015e-02,7.125505805015563965e-02,-6.221286952495574951e-02,8.395984768867492676e-04
6.067395210266113281e-02,6.059013307094573975e-02,7.485902309417724609e-02,6.768301129341125488e-02,-8.441832661628723145e-02,4.882510006427764893e-02,-5.762824416160583496e-02,8.640241622924804688e-02,-5.466178059577941895e-03,6.064765155315399170e-02,2.928597480058670044e-02,-6.234005838632583618e-02,8.278200030326843262e-02,8.020566403865814209e-02,6.925809383392333984e-02,-4.154194518923759460e-02
4.003831744194030762e-02,4.275858402252197266e-02,-7.367219030857086182e-02,4.240980744361877441e-02,3.044172376394271851e-02,-3.824189305305480957e-02,5.781997740268707275e-02,5.193141102790832520e-02,-4.474361240863800049e-02,5.036355555057525635e-02,6.281608343124389648e-02,-1.735299080610275269e-02,-6.734438240528106689e-03,9.708173573017120361e-03,-8.473603427410125732e-02,3.214309364557266235e-02
-1.262808591127395630e-02,-1.824024319648742676e-02,7.472218573093414307e-02,-6.321690976619720459e-03,6.758914887905120850e-02,1.637897640466690063e-02,7.193163037300109863e-02,4.006378352642059326e-02,-2.301699668169021606e-02,5.331219732761383057e-02,6.422555446624755859e-02,1.668902486562728882e-02,7.163062691688537598e-03,-9.630583226680755615e-03,4.258863627910614014e-02,-6.765425205230712891e-04
-3.037709742784500122e-02,7.189723849296569824e-02,-7.087484747171401978e-02,-1.975809037685394287e-02,-7.667431980371475220e-02,-4.250753298401832581e-02,7.208114862442016602e-02,4.572547972202301025e-03,-5.918658524751663208e-02,-4.526031762361526489e-02,6.910206377506256104e-02,2.105796337127685547e-02,-4.807300493121147156e-02,-8.620647341012954712e-02,7.879346609115600586e-02,4.228241741657257080e-02
-1.563731580972671509e-02,8.248209953308105469e-02,5.935220420360565186e-02,-4.230290651321411133e-03,-1.608408987522125244e-03,6.367647647857666016e-02,-1.475931704044342041e-02,-8.488665521144866943e-02,3.935371339321136475e-02,6.909035146236419678e-02,-2.118350565433502197e-02,-2.338012307882308960e-02,5.418604612350463867e-02,8.143238723278045654e-02,-1.996508240699768066e-02,1.460724323987960815e-02
-1.450813561677932739e-02,6.657937169075012207e-02,6.752812862396240234e-02,1.026879996061325073e-02,1.620851457118988037e-02,3.969611227512359619e-02,-1.563640683889389038e-02,-1.371187716722488403e-02,7.182194292545318604e-02,7.863946259021759033e-02,7.770794630050659180e-02,-1.525613665580749512e-02,8.065859973430633545e-02,-3.930130228400230408e-02,4.994106292724609375e-02,-5.922542139887809753e-02
-7.820455729961395264e-02,1.527655869722366333e-02,5.143325030803680420e-02,1.460902392864227295e-03,1.599743217229843140e-02,2.571729570627212524e-02,-4.512935131788253784e-02,3.791816532611846924e-03,7.598027586936950684e-03,5.654463171958923340e-02,-6.060241162776947021e-02,-6.264217197895050049e-02,1.735299080610275269e-02,-2.712895348668098450e-02,1.439492404460906982e-02,1.961931586265563965e-02
1.270995382219552994e-02,-2.575678750872612000e-02,5.477879941463470459e-02,3.769970685243606567e-02,6.955777108669281006e-02,-6.293080747127532959e-02,3.474529087543487549e-02,-2.257194370031356812e-02,4.021852463483810425e-02,4.185586422681808472e-02,7.310227304697036743e-02,-2.631947211921215057e-02,-1.402473356574773788e-02,-4.717796668410301208e-02,-5.327918380498886108e-02,5.952056124806404114e-02
-1.077968478202819824e-01,-1.130776666104793549e-02,-4.687075316905975342e-02,-3.607828542590141296e-02,1.137098595499992371e-01,-2.360660582780838013e-02,-1.129910629242658615e-02,3.892886266112327576e-02,2.239920757710933685e-02,2.323281019926071167e-03,2.988572977483272552e-02,-3.493051975965499878e-02,-4.096349221072159708e-05,-6.123008206486701965e-02,-4.848717153072357178e-02,2.077026991173624992e-03
-4.098021611571311951e-02,1.009860634803771973e-02,-5.212254822254180908e-03,-8.196113258600234985e-02,-6.722246110439300537e-02,7.749052345752716064e-02,-9.629711508750915527e-03,2.367302961647510529e-02,-3.207206726074218750e-02,1.258036959916353226e-02,-7.274022698402404785e-02,1.171403750777244568e-02,7.961948961019515991e-02,1.744432374835014343e-02,-6.339880079030990601e-02,6.258880347013473511e-02
4.495448898524045944e-03,1.041127252392470837e-03,-6.626418232917785645e-02,-2.139031141996383667e-02,-3.178368136286735535e-02,-7.956773042678833008e-04,3.826007246971130371e-03,4.591217264533042908e-02,-4.190512001514434814e-02,-5.088834464550018311e-02,-7.977051287889480591e-02,1.251018885523080826e-02,2.545102499425411224e-02,-6.132270023226737976e-02,-4.447898268699645996e-02,7.693076878786087036e-02
7.398118078708648682e-02,5.275261402130126953e-02,-7.143970578908920288e-02,-6.284198164939880371e-02,-3.127165883779525757e-02,7.210381329059600830e-02,2.473771572113037109e-03,6.847228109836578369e-02,-4.866559058427810669e-02,-2.230188250541687012e-02,1.877951622009277344e-02,-4.139169305562973022e-02,-4.460093751549720764e-02,3.177595883607864380e-02,-8.007583767175674438e-02,6.580232083797454834e-02
-1.189193129539489746e-02,-3.397206217050552368e-02,4.259409010410308838e-02,-7.336190342903137207e-02,4.557535052299499512e-03,-2.536841109395027161e-02,1.866145431995391846e-02,-1.229608803987503052e-02,-7.751844078302383423e-02,-4.312628135085105896e-02,6.652760505676269531e-02,1.228244602680206299e-02,-6.717656552791595459e-02,6.714761257171630859e-03,8.166347444057464600e-02,-8.522996306419372559e-02
-6.809560954570770264e-02,-7.658392190933227539e-02,-7.560524344444274902e-02,6.661845743656158447e-02,-6.455481052398681641e-04,4.275082051753997803e-02,-8.555580675601959229e-02,-4.155472666025161743e-02,-5.470288172364234924e-02,8.784234523773193359e-03,-1.380942016839981079e-02,-1.442354172468185425e-02,4.061092436313629150e-02,8.379939198493957520e-02,9.917251765727996826e-03,-3.659809008240699768e-02
-1.372806727886199951e-02,1.272793859243392944e-02,-6.574892252683639526e-02,-4.843696951866149902e-04,5.440789461135864258e-02,1.574410498142242432e-02,-7.793483883142471313e-02,7.946883141994476318e-02,8.061952888965606689e-02,3.136527538299560547e-02,6.891387701034545898e-02,-1.298568397760391235e-02,-2.590413391590118408e-02,3.956481814384460449e-03,-7.030007988214492798e-02,5.149351060390472412e-02
3.856620192527770996e-02,-8.131419867277145386e-02,6.456451117992401123e-02,5.771236121654510498e-02,2.430988848209381104e-02,7.490816712379455566e-02,5.741980671882629395e-02,-8.329018950462341309e-03,-5.276386067271232605e-02,5.308298766613006592e-02,1.027807593345642090e-04,5.242705345153808594e-03,1.586200296878814697e-02,7.918511331081390381e-02,3.945654630661010742e-02,-7.955084741115570068e-02
4.763142764568328857e-02,-4.437379166483879089e-02,5.486546456813812256e-02,4.582193493843078613e-02,7.420487701892852783e-02,-4.411846399307250977e-03,-1.800962537527084351e-02,-2.685384452342987061e-02,2.464291453361511230e-02,-4.026784002780914307e-02,2.990213781595230103e-02,-1.092545688152313232e-02,-4.399715736508369446e-02,4.517981410026550293e-02,-1.227761059999465942e-02,-4.033475741744041443e-02
3.007855266332626343e-02,-3.049984946846961975e-02,6.620064377784729004e-04,-3.374943882226943970e-02,3.456886112689971924e-02,4.167695343494415283e-02,2.675760537385940552e-02,9.615011513233184814e-03,-1.986823976039886475e-03,7.817034423351287842e-02,6.355899572372436523e-02,5.350172519683837891e-02,2.245993912220001221e-02,5.652165412902832031e-02,5.785074830055236816e-02,6.308001279830932617e-02
8.190567791461944580e-02,1.688699424266815186e-02,4.504933953285217285e-02,-2.770882099866867065e-02,7.865476608276367188e-02,-7.035492360591888428e-02,-4.800459742546081543e-02,-9.921796619892120361e-03,2.734243869781494141e-03,1.444369554519653320e-02,6.528936326503753662e-03,5.298011004924774170e-02,8.057540655136108398e-02,8.467955887317657471e-02,-3.688536211848258972e-02,-8.418391644954681396e-02
1.427292823791503906e-03,4.894423484802246094e-02,-3.468225896358489990e-02,-7.861740887165069580e-03,8.120714128017425537e-02,7.880789041519165039e-02,-6.023075431585311890e-02,-6.199128925800323486e-03,4.736880958080291748e-02,3.738263994455337524e-02,-4.564029723405838013e-02,-4.152319580316543579e-02,-2.915989607572555542e-02,4.677040874958038330e-02,-3.234797716140747070e-02,2.402102947235107422e-02
-6.085119768977165222e-02,-7.361848652362823486e-02,4.849271476268768311e-02,1.356790214776992798e-02,8.175335824489593506e-02,-2.544313296675682068e-02,8.620268106460571289e-02,7.471708953380584717e-02,-5.984070152044296265e-02,-4.255770519375801086e-02,-1.775178313255310059e-02,4.264205694198608398e-02,-3.354178369045257568e-02,-4.433162882924079895e-02,7.653373479843139648e-02,-3.686890751123428345e-02
-8.723117411136627197e-03,6.290249526500701904e-02,-6.151382252573966980e-02,-6.985834240913391113e-02,3.054921329021453857e-02,3.465211391448974609e-02,-6.846169382333755493e-02,1.207515597343444824e-03,5.254387855529785156e-02,6.357230246067047119e-03,6.999067962169647217e-02,-8.258402347564697266e-03,-6.068791449069976807e-02,1.117271184921264648e-02,1.444379985332489014e-02,3.716863691806793213e-03
2.085186541080474854e-03,-6.564756482839584351e-02,2.718739211559295654e-03,-6.661449372768402100e-02,2.919326722621917725e-02,-8.549904823303222656e-02,-2.019995450973510742e-02,-1.623283326625823975e-02,-2.722040191292762756e-02,2.853691577911376953e-02,4.139098525047302246e-02,4.978343844413757324e-02,5.407086014747619629e-02,-4.292128980159759521e-02,-8.192926645278930664e-03,6.141886115074157715e-02
-8.281894028186798096e-02,5.604229867458343506e-02,6.090830266475677490e-02,-3.279148787260055542e-02,-5.408702418208122253e-02,-3.551010414958000183e-02,7.855273783206939697e-03,-1.662402600049972534e-02,-7.252246141433715820e-04,-1.954818516969680786e-02,6.529758870601654053e-02,2.090269327163696289e-02,8.210566639900207520e-02,-5.843254923820495605e-02,-3.235734999179840088e-03,8.349561691284179688e-02
1.880382001399993896e-02,-5.021625012159347534e-02,-8.034464716911315918e-02,5.646735429763793945e-02,2.638608217239379883e-03,4.014994204044342041e-02,-4.588752985000610352e-03,8.546094596385955811e-02,7.408039271831512451e-02,7.285465300083160400e-02,4.699948430061340332e-02,4.917836189270019531e-02,1.748885214328765869e-02,5.201733112335205078e-02,-7.623908668756484985e-02,8.402371406555175781e-02
-3.117258846759796143e-02,5.456320941448211670e-02,9.998090565204620361e-03,5.361977219581604004e-02,-6.498921662569046021e-02,-1.145802438259124756e-03,-2.451706677675247192e-02,6.699115037918090820e-02,6.290493905544281006e-02,7.118999958038330078e-02,3.738352656364440918e-02,-2.496241405606269836e-02,-4.200734198093414307e-02,-8.589378744363784790e-02,-8.344233036041259766e-02,-1.997388899326324463e-03
6.109498441219329834e-02,-6.475608050823211670e-02,6.150752305984497070e-02,-1.995857805013656616e-02,-8.177267760038375854e-02,3.425180912017822266e-03,1.956831663846969604e-02,4.017162322998046875e-02,4.723809659481048584e-03,-7.996729016304016113e-02,2.561783045530319214e-02,-1.327024400234222412e-02,-3.006567060947418213e-02,-7.686074823141098022e-02,5.414597690105438232e-02,5.952209234237670898e-02
-5.175870284438133240e-02,6.448391824960708618e-02,-7.726334035396575928e-02,-3.948793560266494751e-02,6.358618289232254028e-02,4.792266711592674255e-02,4.969401657581329346e-02,-4.524016287177801132e-03,7.912148721516132355e-03,5.202408879995346069e-02,4.799928516149520874e-02,4.495668690651655197e-03,4.664982482790946960e-02,-1.094297617673873901e-01,-9.745555371046066284e-02,5.017369985580444336e-02
-1.544457580894231796e-02,7.000530511140823364e-02,-5.948822572827339172e-02,-1.533941179513931274e-02,1.914649456739425659e-02,6.932990998029708862e-02,-4.519446939229965210e-02,-4.583835601806640625e-02,3.871066495776176453e-02,-7.285777479410171509e-02,2.435496449470520020e-02,1.007894724607467651e-01,1.146921794861555099e-02,2.725741593167185783e-03,-1.214637979865074158e-01,-6.609811633825302124e-02
-1.773548126220703125e-01,1.692406386137008667e-01,-4.613970220088958740e-02,-1.171342134475708008e-01,1.399148553609848022e-01,-5.598916485905647278e-02,-7.689659297466278076e-02,-1.068326085805892944e-01,-4.483602941036224365e-02,-1.239223256707191467e-01,1.866111010313034058e-01,1.474646478891372681e-01,1.465225815773010254e-01,-1.929305940866470337e-01,-1.646049618721008301e-01,1.523656398057937622e-02
-2.110158503055572510e-01,1.817249804735183716e-01,2.967543154954910278e-02,1.526494394056499004e-03,1.349086314439773560e-01,-2.217488922178745270e-02,1.046101525425910950e-01,-1.804595589637756348e-01,-7.074737548828125000e-02,-1.881045997142791748e-01,2.288071811199188232e-02,1.196276769042015076e-01,1.461502313613891602e-01,-1.121773645281791687e-01,-2.148974835872650146e-01,-2.142783813178539276e-02
-3.594876825809478760e-02,1.370088160037994385e-01,-9.311547875404357910e-02,-2.991695329546928406e-02,2.621193826198577881e-01,-1.626872271299362183e-02,-1.332754790782928467e-01,-3.547829017043113708e-02,-6.909713894128799438e-02,-2.423127293586730957e-01,-4.613681137561798096e-02,7.588846236467361450e-02,8.883150666952133179e-02,-1.255307793617248535e-01,-1.261788755655288696e-01,9.449354372918605804e-03
-1.593293994665145874e-01,2.751003801822662354e-01,3.007139451801776886e-02,-8.977113664150238037e-02,1.395982056856155396e-01,-2.019228599965572357e-02,-9.680691175162792206e-03,2.194127533584833145e-03,-1.187732815742492676e-02,-9.691196680068969727e-02,1.821363717317581177e-02,1.335806846618652344e-01,1.762617379426956177e-01,-1.269081681966781616e-01,-1.607980281114578247e-01,-7.658252120018005371e-02
-1.974432319402694702e-01,1.702078431844711304e-01,-9.051617234945297241e-02,-1.587092429399490356e-01,2.229860126972198486e-01,1.877065449953079224e-01,2.859857864677906036e-03,-1.155031472444534302e-01,6.183517631143331528e-03,-2.062274366617202759e-01,5.982129648327827454e-02,2.475953996181488037e-01,2.125890851020812988e-01,-1.913708895444869995e-01,-2.457665354013442993e-01,-3.229367360472679138e-02
-3.160926997661590576e-01,1.741017997264862061e-01,-3.379268571734428406e-02,-7.630494236946105957e-02,1.908103823661804199e-01,3.632548823952674866e-02,1.744051463901996613e-02,-9.391010552644729614e-02,-9.030741453170776367e-02,-3.423104286193847656e-01,1.745679080486297607e-01,5.714691802859306335e-02,1.490967124700546265e-01,-2.437771111726760864e-01,-1.942459195852279663e-01,-9.733330458402633667e-02
-2.157309800386428833e-01,1.786414533853530884e-01,3.238910436630249023e-02,1.028445456176996231e-02,1.966329514980316162e-01,-6.838242709636688232e-02,7.334614545106887817e-02,-4.512392729520797729e-02,-1.244202107191085815e-01,-2.833532094955444336e-01,8.083443343639373779e-02,-1.087790913879871368e-02,2.133837044239044189e-01,-2.791246771812438965e-01,-2.856844365596771240e-01,-1.263336092233657837e-01
-1.358794718980789185e-01,1.349136978387832642e-01,-1.127026751637458801e-01,-7.930750399827957153e-02,1.068807393312454224e-01,-2.601861059665679932e-01,9.950673580169677734e-02,-1.325701773166656494e-01,2.092620916664600372e-02,-1.305373460054397583e-01,4.445664212107658386e-02,-1.819294877350330353e-02,1.428648829460144043e-01,-1.724859476089477539e-01,-7.908109575510025024e-02,8.975425362586975098e-02
2.048368304967880249e-01,-1.260531991720199585e-01,-5.520378425717353821e-02,-7.093250006437301636e-02,5.806303024291992188e-02,-2.384630143642425537e-01,8.159766346216201782e-02,1.465040296316146851e-01,2.822347916662693024e-02,-3.414993360638618469e-02,-1.395834237337112427e-01,-1.578728407621383667e-01,-3.853033855557441711e-02,9.770557284355163574e-02,3.166097030043601990e-02,2.228487133979797363e-01
6.880342029035091400e-03,-9.736334532499313354e-02,-1.093931049108505249e-01,-3.100464344024658203e-01,-6.974328309297561646e-02,-8.929011225700378418e-02,9.949005395174026489e-02,-4.420889541506767273e-02,1.207354515790939331e-01,7.283896673470735550e-03,3.606281802058219910e-02,1.156079322099685669e-01,-1.139257028698921204e-01,1.334825605154037476e-01,9.686014801263809204e-02,2.055775672197341919e-01
-2.382389605045318604e-01,1.884979754686355591e-01,-1.049432530999183655e-01,-3.866515755653381348e-01,-1.142670586705207825e-01,-2.496688393875956535e-03,-8.845037221908569336e-02,-1.375632733106613159e-01,2.367708384990692139e-01,2.482114583253860474e-01,1.209053844213485718e-01,4.246184229850769043e-01,-1.669797003269195557e-01,3.178838789463043213e-01,2.601566910743713379e-01,1.121378690004348755e-01
-2.143481522798538208e-01,2.152381539344787598e-01,-1.709614247083663940e-01,-3.554597198963165283e-01,1.111236661672592163e-01,-2.926300745457410812e-03,3.071127459406852722e-02,-9.834580123424530029e-03,-9.980256669223308563e-03,-7.158151268959045410e-02,1.939621055498719215e-03,2.462867796421051025e-01,1.305991262197494507e-01,6.978584080934524536e-02,-7.768565416336059570e-02,6.628234684467315674e-02
-1.476077437400817871e-01,3.284735381603240967e-01,-7.765892893075942993e-02,-7.499866187572479248e-02,1.994956135749816895e-01,2.528345771133899689e-02,1.315272897481918335e-01,1.409460902214050293e-01,-3.664673492312431335e-02,-1.414249688386917114e-01,2.792220190167427063e-02,-7.330615073442459106e-02,2.266334593296051025e-01,-1.890361905097961426e-01,-1.624913811683654785e-01,-1.129433587193489075e-01
-1.799431592226028442e-01,2.144276797771453857e-01,-5.255154892802238464e-02,-1.151053328067064285e-02,3.838603198528289795e-01,3.048175945878028870e-02,2.670076787471771240e-01,1.019476428627967834e-01,-2.066957578063011169e-02,-2.666977941989898682e-01,-3.416858613491058350e-02,1.258707940578460693e-01,2.221062779426574707e-01,-3.275658786296844482e-01,-2.210275232791900635e-01,-1.893287301063537598e-01
-2.885236740112304688e-01,1.798294931650161743e-01,2.338862791657447815e-02,4.517010971903800964e-02,2.420785278081893921e-01,2.355624288320541382e-01,1.578587889671325684e-01,-1.041697803884744644e-03,-1.227453649044036865e-01,-2.729040682315826416e-01,2.046474963426589966e-01,2.283127903938293457e-01,1.470813900232315063e-01,-2.171638906002044678e-01,-2.333326488733291626e-01,-1.792014390230178833e-01
-9.817000478506088257e-02,2.029187828302383423e-01,5.152387544512748718e-02,-3.951540589332580566e-02,1.550464779138565063e-01,5.057786777615547180e-02,1.092323437333106995e-01,5.175604298710823059e-02,-7.502520084381103516e-02,-1.943555176258087158e-01,1.896930038928985596e-01,1.601607650518417358e-01,2.401447892189025879e-01,-9.496103227138519287e-02,-2.789936065673828125e-01,-1.696230471134185791e-01
-2.015105336904525757e-01,2.100141197443008423e-01,8.155992627143859863e-02,-1.799618005752563477e-01,1.029951348900794983e-01,6.918112933635711670e-02,1.599769741296768188e-01,-1.775177568197250366e-01,4.030096158385276794e-02,-1.993114501237869263e-01,9.592530131340026855e-02,1.604627668857574463e-01,3.291009739041328430e-02,-1.017179861664772034e-01,-1.322887986898422241e-01,-8.636419475078582764e-02
-1.412854492664337158e-01,9.277696907520294189e-02,-5.503144860267639160e-02,-2.018579095602035522e-01,1.772641092538833618e-01,1.723427027463912964e-01,1.506590843200683594e-02,-1.404629051685333252e-01,4.711666703224182129e-02,-1.246607452630996704e-01,3.262319043278694153e-02,3.481534123420715332e-02,8.217623457312583923e-03,-1.124421507120132446e-01,-1.039425134658813477e-01,-8.571788668632507324e-02
7.902421057224273682e-02,-6.260667741298675537e-02,-4.813522100448608398e-03,7.034100592136383057e-02,6.694419682025909424e-02,-3.456704318523406982e-02,-1.532860100269317627e-03,-4.880215600132942200e-02,-4.113716632127761841e-02,6.094324588775634766e-02,-5.425429344177246094e-02,-5.389556288719177246e-03,-5.776782333850860596e-02,1.314140856266021729e-02,6.803253293037414551e-02,8.144988119602203369e-02
-5.751155316829681396e-03,6.883905827999114990e-02,3.047529608011245728e-02,1.516446471214294434e-03,-7.617600262165069580e-03,5.177803337574005127e-02,4.354692995548248291e-03,-5.885737761855125427e-02,1.176918298006057739e-02,5.935892462730407715e-02,-7.983624935150146484e-03,-8.517630398273468018e-03,2.311731874942779541e-02,-5.254813656210899353e-02,6.434182822704315186e-02,-1.524327695369720459e-02
-1.097133755683898926e-02,7.062713801860809326e-02,3.326018899679183960e-02,-2.548562735319137573e-02,-4.364744946360588074e-02,4.467841982841491699e-02,1.144536584615707397e-02,-1.395207643508911133e-02,6.108978390693664551e-02,-6.618753075599670410e-03,-6.860569119453430176e-02,2.051049470901489258e-02,2.559844404458999634e-02,2.261667698621749878e-02,-2.054156363010406494e-02,7.997043430805206299e-02
5.012381076812744141e-02,3.239873051643371582e-02,2.220308035612106323e-02,-3.761253133416175842e-02,-6.430584192276000977e-02,-3.674991428852081299e-02,-5.265155807137489319e-02,-2.979047596454620361e-02,6.571590900421142578e-02,2.850227057933807373e-02,1.588018983602523804e-02,-9.841293096542358398e-03,8.649073541164398193e-02,6.658087670803070068e-02,-6.314304471015930176e-02,-7.530926167964935303e-02
-5.050963535904884338e-02,7.884061336517333984e-02,2.219666540622711182e-02,8.173029124736785889e-02,-4.699051007628440857e-02,6.804628670215606689e-02,-1.348254829645156860e-02,1.106123626232147217e-02,2.247569710016250610e-02,4.662698507308959961e-02,-5.227133259177207947e-02,2.562103420495986938e-02,7.457183301448822021e-02,-9.311944246292114258e-03,7.449062168598175049e-02,5.489216744899749756e-02
7.911181449890136719e-02,4.482686519622802734e-03,-2.897446230053901672e-02,3.371887654066085815e-02,7.012791931629180908e-02,-4.743301123380661011e-02,-5.654960870742797852e-02,7.529743015766143799e-02,-6.954493373632431030e-02,5.808317661285400391e-02,-2.205500006675720215e-02,8.146345615386962891e-03,5.013301968574523926e-02,-7.693140208721160889e-02,2.885945141315460205e-02,3.289625048637390137e-03
-4.060949757695198059e-02,6.442152708768844604e-02,-8.831106126308441162e-03,4.815825819969177246e-02,-5.713348090648651123e-02,3.483071550726890564e-02,5.959694739431142807e-03,-3.580285981297492981e-02,-5.311175715178251266e-03,-4.786118865013122559e-02,3.941995650529861450e-02,8.836731314659118652e-02,4.508534073829650879e-02,3.285694122314453125e-02,3.815795853734016418e-02,4.953540861606597900e-02
-1.091851666569709778e-01,1.792411208152770996e-01,-3.886214271187782288e-02,-6.721019744873046875e-03,2.797017619013786316e-02,1.346638649702072144e-01,-5.770452693104743958e-02,-7.269070297479629517e-02,1.194459348917007446e-01,1.081162467598915100e-01,1.749522052705287933e-02,1.424966454505920410e-01,-9.246435761451721191e-02,3.789262846112251282e-02,-1.625124663114547729e-01,1.304145455360412598e-01
-8.813074976205825806e-02,1.958969831466674805e-01,1.202379986643791199e-01,6.492771953344345093e-02,-2.168751694262027740e-02,1.187440454959869385e-01,1.291005760431289673e-01,4.577075317502021790e-02,5.967069417238235474e-03,-5.909280106425285339e-02,7.629835605621337891e-02,1.413732916116714478e-01,-9.144286811351776123e-02,1.442446559667587280e-01,-2.105241119861602783e-01,5.455335974693298340e-02
3.186576440930366516e-02,1.128132119774818420e-01,2.359858155250549316e-02,9.355097264051437378e-02,6.185295805335044861e-02,7.209026068449020386e-02,8.586219698190689087e-02,-6.278297305107116699e-02,2.742073312401771545e-02,-6.627761572599411011e-02,-4.189961776137351990e-02,2.035314776003360748e-02,8.357573300600051880e-03,-1.000269725918769836e-01,6.179692596197128296e-02,-3.092865459620952606e-02
-1.922095865011215210e-01,1.277588754892349243e-01,-4.811014980077743530e-02,1.434567570686340332e-02,1.479969620704650879e-01,-3.433272242546081543e-02,-2.909559197723865509e-02,-1.536942273378372192e-01,5.574388056993484497e-02,-2.196765244007110596e-01,1.413445323705673218e-01,1.865263283252716064e-01,2.030124068260192871e-01,-1.012859567999839783e-01,-1.979931294918060303e-01,-4.224598035216331482e-02
-1.573375761508941650e-01,2.745294272899627686e-01,-1.319590210914611816e-01,1.698698475956916809e-02,3.258942663669586182e-01,5.205427296459674835e-03,1.408538222312927246e-01,5.008978396654129028e-02,-1.991376429796218872e-01,-3.837655484676361084e-01,1.708803325891494751e-01,1.996096819639205933e-01,2.265681177377700806e-01,-2.009954899549484253e-01,-2.028441727161407471e-01,8.648721128702163696e-02
-3.743026256561279297e-01,2.846097946166992188e-01,-6.744421273469924927e-02,3.023385303094983101e-03,3.148221075534820557e-01,4.538777470588684082e-02,-8.193885535001754761e-02,-5.877069011330604553e-02,-1.300242394208908081e-01,-2.996694147586822510e-01,2.166423350572586060e-01,3.168811202049255371e-01,1.830193847417831421e-01,-4.445663988590240479e-01,-1.805780529975891113e-01,-2.207480184733867645e-02
-2.467508465051651001e-01,4.666189253330230713e-01,-1.567544788122177124e-01,-3.009652905166149139e-02,2.888941168785095215e-01,3.802563622593879700e-02,-4.857689142227172852e-02,-1.328066736459732056e-01,-1.443545613437891006e-02,-2.195678353309631348e-01,1.394494473934173584e-01,2.293563485145568848e-01,3.670263886451721191e-01,-5.008291602134704590e-01,-2.831126749515533447e-01,-1.934449821710586548e-01
-3.138207793235778809e-01,4.776043891906738281e-01,-2.194326221942901611e-01,-1.920148134231567383e-01,3.506030738353729248e-01,2.048951089382171631e-01,-1.481735892593860626e-02,-2.151807546615600586e-01,-1.128969714045524597e-01,-1.094990894198417664e-01,1.789214760065078735e-01,3.234724700450897217e-01,2.488243281841278076e-01,-1.902724057435989380e-01,-2.714778184890747070e-01,-2.752374708652496338e-01
-5.199190974235534668e-01,4.950199723243713379e-01,-3.667602837085723877e-01,-2.196037024259567261e-01,4.519304037094116211e-01,2.312034815549850464e-01,-1.152093634009361267e-01,-1.023752763867378235e-01,-1.620691120624542236e-01,-1.897698342800140381e-01,2.912459969520568848e-01,4.270257651805877686e-01,4.472253620624542236e-01,-3.048772513866424561e-01,-1.293710768222808838e-01,-3.683269619941711426e-01
-6.644122004508972168e-01,4.582362771034240723e-01,-3.930867910385131836e-01,-3.809036314487457275e-01,3.305299282073974609e-01,3.368815183639526367e-01,-2.128283977508544922e-01,-6.667499244213104248e-02,1.408394277095794678e-01,-2.758792228996753693e-02,4.099918901920318604e-01,5.607998967170715332e-01,4.669236242771148682e-01,-3.536571264266967773e-01,-7.279423624277114868e-02,-1.613811701536178589e-01
-5.028123855590820312e-01,4.056986570358276367e-01,-3.319242596626281738e-01,-4.305901527404785156e-01,2.428585290908813477e-01,2.164158523082733154e-01,-1.214352697134017944e-01,-1.852795481681823730e-02,-3.306465223431587219e-02,-9.830933064222335815e-03,2.553391158580780029e-01,4.250718355178833008e-01,3.273173570632934570e-01,-2.158169150352478027e-01,1.469132155179977417e-01,-9.286396950483322144e-02
-4.164264500141143799e-01,4.158692061901092529e-01,-3.334123790264129639e-01,-3.944056928157806396e-01,3.351879417896270752e-01,1.817858219146728516e-01,-1.454676091670989990e-01,1.504991203546524048e-01,-7.659635692834854126e-02,-4.409380629658699036e-02,9.009325504302978516e-02,2.286019027233123779e-01,4.243600964546203613e-01,-2.617473900318145752e-01,-6.307315197773277760e-05,1.990686804056167603e-01
-5.220237970352172852e-01,4.537731409072875977e-01,-2.266816347837448120e-01,-4.838844835758209229e-01,1.797866970300674438e-01,1.406748294830322266e-01,-1.194414943456649780e-01,2.291304022073745728e-01,-6.098081916570663452e-02,-4.658821597695350647e-02,2.049538791179656982e-01,3.299358487129211426e-01,2.202451080083847046e-01,-1.086826771497726440e-01,2.521628327667713165e-02,-2.484731562435626984e-02
-4.492517709732055664e-01,3.238186538219451904e-01,-2.600677907466888428e-01,-5.540155172348022461e-01,-1.034013554453849792e-02,-6.864985078573226929e-02,-4.213563725352287292e-02,1.202019453048706055e-01,5.080721527338027954e-02,-4.546811059117317200e-02,2.779724299907684326e-01,2.163242697715759277e-01,1.200305595993995667e-01,9.783599525690078735e-02,-2.879376057535409927e-03,-1.245625019073486328e-01
-4.292897880077362061e-01,1.995586603879928589e-01,-3.341896533966064453e-01,-4.968809485435485840e-01,-5.199954286217689514e-02,-1.316033750772476196e-01,3.451300412416458130e-02,1.481108218431472778e-01,1.467486750334501266e-02,-3.538484498858451843e-02,3.985853791236877441e-01,1.358933448791503906e-01,1.174215227365493774e-01,1.343785077333450317e-01,-7.691358774900436401e-02,-7.865412533283233643e-02
-2.453102618455886841e-01,1.909287273883819580e-01,-3.329673707485198975e-01,-3.921178281307220459e-01,2.102235704660415649e-02,-1.743291765451431274e-01,-2.826969139277935028e-02,2.492706924676895142e-01,5.330788344144821167e-02,4.547467455267906189e-02,2.515493631362915039e-01,1.573113799095153809e-01,1.160398405045270920e-02,1.970643997192382812e-01,-4.415332973003387451e-01,-2.028889805078506470e-01
-1.593517959117889404e-01,2.379897087812423706e-01,-3.190613985061645508e-01,-2.437469512224197388e-01,5.488360300660133362e-03,-1.911431550979614258e-01,2.577317133545875549e-02,3.420944809913635254e-01,2.388241514563560486e-02,-1.620805710554122925e-01,4.144423454999923706e-02,7.818091660737991333e-02,-7.398501783609390259e-02,2.458763569593429565e-01,-5.738416910171508789e-01,-4.099329710006713867e-01
-3.321101539768278599e-04,1.137078627943992615e-01,-3.378787636756896973e-01,-6.909075193107128143e-03,-1.327544301748275757e-01,5.096078291535377502e-02,1.156938970088958740e-01,2.680169641971588135e-01,1.504929214715957642e-01,-5.919461697340011597e-02,-1.177872419357299805e-01,-1.072093397378921509e-01,-1.902315020561218262e-02,1.890038102865219116e-01,-5.291971564292907715e-01,-4.185501635074615479e-01
-3.086212575435638428e-01,3.139154613018035889e-01,-1.702598333358764648e-01,-7.494625449180603027e-02,1.261129379272460938e-01,7.842256873846054077e-02,2.273283302783966064e-01,2.670731246471405029e-01,-1.576293557882308960e-01,-2.619729638099670410e-01,1.378546208143234253e-01,1.539079993963241577e-01,1.506523042917251587e-01,-1.513270288705825806e-01,-4.102174639701843262e-01,-4.554050564765930176e-01
-3.309552073478698730e-01,3.101636469364166260e-01,-1.062307134270668030e-01,1.662131957709789276e-02,2.528363168239593506e-01,9.030960500240325928e-03,2.084358632564544678e-01,2.753816843032836914e-01,-1.627472788095474243e-01,-3.313530385494232178e-01,-1.171794310212135315e-01,6.385491788387298584e-02,6.554449349641799927e-02,-1.340516805648803711e-01,-2.814258337020874023e-01,-3.330110311508178711e-01
-2.876616716384887695e-01,2.413585633039474487e-01,-1.166451498866081238e-01,-9.396770596504211426e-02,1.107065752148628235e-01,2.507292665541172028e-02,1.398047059774398804e-01,9.374597109854221344e-03,-9.510721266269683838e-02,-1.064867079257965088e-01,1.011194139719009399e-01,1.720326542854309082e-01,4.038861393928527832e-02,-3.078715205192565918e-01,-2.930216789245605469e-01,-1.493542641401290894e-01
-1.625284552574157715e-01,2.048867940902709961e-01,-6.796638667583465576e-02,-8.156643062829971313e-02,-5.387530475854873657e-02,2.447628602385520935e-02,-1.438041329383850098e-01,6.449605524539947510e-02,9.867820143699645996e-02,2.217350453138351440e-01,1.512892097234725952e-01,2.588213384151458740e-01,-7.110425829887390137e-02,-9.320281445980072021e-02,-7.648746948689222336e-03,1.534351985901594162e-02
-1.528914868831634521e-01,6.349846720695495605e-02,-6.815943121910095215e-02,-5.535329878330230713e-02,-1.871678382158279419e-01,8.013851940631866455e-02,-9.375119954347610474e-02,5.323307216167449951e-02,7.064551860094070435e-02,1.216331645846366882e-01,1.044838652014732361e-01,2.056584209203720093e-01,-5.384005606174468994e-02,-2.007890045642852783e-01,-9.902568534016609192e-03,6.386683136224746704e-02
-5.238900333642959595e-02,2.252694219350814819e-02,1.890972256660461426e-03,6.902700662612915039e-02,6.567195057868957520e-03,-7.049177587032318115e-02,-4.997004941105842590e-02,-8.574143052101135254e-02,-5.219685658812522888e-02,-3.138391673564910889e-02,-9.373269975185394287e-03,5.166210234165191650e-02,-4.826433956623077393e-03,-3.594420105218887329e-02,3.026390820741653442e-02,-1.630260050296783447e-02
-1.238373667001724243e-02,5.985352396965026855e-02,-2.115058898925781250e-02,-1.488678157329559326e-03,6.822817027568817139e-02,-3.469177708029747009e-02,7.248142361640930176e-02,-5.352547019720077515e-02,-3.164808452129364014e-02,-3.138020262122154236e-02,1.651659607887268066e-02,-4.444430395960807800e-02,-6.498700380325317383e-02,-1.374836266040802002e-02,7.909388840198516846e-02,-5.572865903377532959e-02
-6.590636074542999268e-02,-3.535068407654762268e-02,-6.851874291896820068e-02,-4.605824872851371765e-02,-5.538757890462875366e-02,-5.752089619636535645e-02,7.362323999404907227e-02,4.985219240188598633e-02,2.912648767232894897e-02,-2.759625017642974854e-02,-1.296129822731018066e-02,7.065455615520477295e-02,-3.424235805869102478e-02,-8.072087168693542480e-02,2.885401993989944458e-02,-7.413139939308166504e-02
-6.674125045537948608e-02,1.480457186698913574e-02,-5.806368216872215271e-02,-6.514832377433776855e-03,-4.633895307779312134e-02,4.687491059303283691e-02,2.777968347072601318e-02,-2.724643796682357788e-02,-4.933606088161468506e-02,-4.604324698448181152e-03,3.694447875022888184e-02,-4.155986756086349487e-02,2.870992571115493774e-02,-5.774706974625587463e-02,1.950955390930175781e-02,8.618097007274627686e-02
1.177564933896064758e-01,-7.218693941831588745e-02,-1.697057485580444336e-02,8.822840452194213867e-02,-1.284491270780563354e-01,4.214018583297729492e-02,1.120771914720535278e-01,-1.050860732793807983e-01,-1.551938522607088089e-02,-5.020537227392196655e-02,-6.083640083670616150e-02,1.396178174763917923e-02,-5.460441112518310547e-02,-4.653057083487510681e-02,7.110123336315155029e-02,-7.397929579019546509e-02
-6.716476380825042725e-02,1.165786385536193848e-01,8.950474858283996582e-02,1.224522590637207031e-01,-4.501216113567352295e-02,1.395917981863021851e-01,1.129098683595657349e-01,-1.638961434364318848e-01,1.152120307087898254e-01,1.015332192182540894e-01,-1.815174520015716553e-02,1.687538623809814453e-01,3.607434406876564026e-02,-1.576027832925319672e-02,-6.446804106235504150e-02,5.949059128761291504e-02
-1.317901164293289185e-01,1.685003489255905151e-01,-1.122631281614303589e-01,-5.732535384595394135e-03,-2.105670794844627380e-02,-3.470346704125404358e-02,6.536719202995300293e-02,-1.544206738471984863e-01,6.087211892008781433e-02,1.586387455463409424e-01,-2.084827795624732971e-02,5.172049626708030701e-02,-1.048829853534698486e-01,2.012593895196914673e-01,-6.396275758743286133e-02,-9.004183113574981689e-03
-1.205364167690277100e-01,2.678668312728404999e-02,-2.627077102661132812e-01,-1.753311604261398315e-01,1.353446394205093384e-01,-1.602730713784694672e-02,-2.075698412954807281e-02,-9.933921508491039276e-03,4.416169133037328720e-03,-1.195727437734603882e-01,2.594807147979736328e-01,2.332085669040679932e-01,1.752681583166122437e-01,-3.222932666540145874e-02,1.313612163066864014e-01,-1.855744272470474243e-01
-2.182905077934265137e-01,2.228707224130630493e-01,-2.701508104801177979e-01,-5.362567678093910217e-02,9.534782916307449341e-02,1.891087889671325684e-01,1.642666198313236237e-02,-2.949874699115753174e-01,1.220665425062179565e-01,-2.354903221130371094e-01,2.124219089746475220e-01,3.969511687755584717e-01,1.181985512375831604e-01,-3.919380307197570801e-01,5.856959614902734756e-03,-2.473118156194686890e-01
-2.934474050998687744e-01,1.144251823425292969e-01,-2.674561142921447754e-01,1.174363046884536743e-01,1.665763258934020996e-01,1.277697086334228516e-01,2.338768690824508667e-01,-2.667122483253479004e-01,6.836134195327758789e-02,-2.489626854658126831e-01,2.178818434476852417e-01,3.338085711002349854e-01,-1.862284354865550995e-02,-1.674229949712753296e-01,6.733662635087966919e-02,-2.844643890857696533e-01
-7.785025238990783691e-02,5.020625591278076172e-01,1.856484115123748779e-01,-7.593482732772827148e-02,3.876974573358893394e-03,-3.186686635017395020e-01,-1.067904531955718994e-01,-2.840677797794342041e-01,2.413034141063690186e-01,-1.697531202808022499e-03,-9.020368754863739014e-02,1.271466463804244995e-01,-1.258669644594192505e-01,8.941947668790817261e-02,-1.044745892286300659e-01,-6.386838853359222412e-03
-5.685893818736076355e-02,4.139299690723419189e-01,-1.745228171348571777e-01,-1.499674618244171143e-01,2.260144203901290894e-01,-2.912963628768920898e-01,4.358033835887908936e-02,-3.839697241783142090e-01,1.823325268924236298e-02,7.536429166793823242e-02,4.570500925183296204e-02,4.180665612220764160e-01,1.318520307540893555e-01,5.455116555094718933e-02,-1.737684309482574463e-01,-2.474992871284484863e-01
-2.295248210430145264e-01,5.735033154487609863e-01,-2.700152397155761719e-01,-2.009513378143310547e-01,3.621950149536132812e-01,-1.881244033575057983e-01,6.736169755458831787e-02,-4.174861311912536621e-01,7.498643826693296432e-03,-3.738832101225852966e-02,1.169391274452209473e-01,5.135390162467956543e-01,1.885130852460861206e-01,1.665449738502502441e-01,-1.597453057765960693e-01,-4.793081283569335938e-01
-1.878305375576019287e-01,5.262901186943054199e-01,-2.656926810741424561e-01,-3.577537536621093750e-01,3.844643533229827881e-01,-2.628084421157836914e-01,1.240661647170782089e-02,-3.898820281028747559e-01,1.301651261746883392e-02,-9.856581687927246094e-02,2.987428754568099976e-02,4.079453051090240479e-01,4.030258208513259888e-02,1.792583465576171875e-01,-2.016938626766204834e-01,-2.340906113386154175e-01
-1.527502536773681641e-01,5.855386853218078613e-01,-1.020592302083969116e-01,-1.500753313302993774e-01,2.655608355998992920e-01,-1.688861548900604248e-01,1.515309959650039673e-01,-4.285808503627777100e-01,9.113084524869918823e-02,-1.930547058582305908e-01,-2.239888347685337067e-02,3.677095174789428711e-01,-5.777450744062662125e-03,1.429014652967453003e-01,3.186243399977684021e-02,-6.721130758523941040e-02
-3.457452654838562012e-01,6.509388089179992676e-01,-8.586149662733078003e-02,-4.761079326272010803e-02,2.835020124912261963e-01,5.107292160391807556e-02,3.041883111000061035e-01,-2.401470392942428589e-01,1.935438364744186401e-01,-2.105760127305984497e-01,-4.336117953062057495e-02,4.225122630596160889e-01,-9.059813618659973145e-02,-2.145422548055648804e-01,-6.864026188850402832e-02,-1.015897020697593689e-01
-1.967523694038391113e-01,4.636559486389160156e-01,-2.587992846965789795e-01,-5.444001033902168274e-02,1.260884553194046021e-01,-1.081219911575317383e-01,3.593487739562988281e-01,-1.196783334016799927e-01,2.069754749536514282e-01,-1.912227720022201538e-01,-1.800381927751004696e-03,2.866473495960235596e-01,-8.191546052694320679e-02,4.398785531520843506e-02,5.084118992090225220e-02,-4.209328442811965942e-02
-2.463946938514709473e-01,3.913171887397766113e-01,-2.073568552732467651e-01,-1.358553022146224976e-01,4.096034169197082520e-02,2.407845854759216309e-02,2.140973806381225586e-01,9.164291620254516602e-02,4.459810256958007812e-02,-1.214021518826484680e-01,1.021906584501266479e-01,2.627776563167572021e-01,1.618419215083122253e-02,2.102573402225971222e-02,2.179150842130184174e-02,-2.503537237644195557e-01
-2.969594597816467285e-01,3.002500236034393311e-01,-1.077069435268640518e-02,-1.823684722185134888e-01,5.985566601157188416e-02,-3.488985896110534668e-01,1.342195123434066772e-01,1.792757958173751831e-02,1.030193194746971130e-01,-1.275718212127685547e-01,1.773687154054641724e-01,2.827224433422088623e-01,-1.145132165402173996e-02,3.214441239833831787e-01,3.129097446799278259e-02,-1.137570664286613464e-01
-1.673798263072967529e-01,2.567916214466094971e-01,-1.967616528272628784e-01,-3.315064013004302979e-01,3.389146551489830017e-02,-3.193974792957305908e-01,1.819513589143753052e-01,2.250122278928756714e-01,6.981971114873886108e-02,-1.651288270950317383e-01,1.329789906740188599e-01,1.453025639057159424e-01,-1.883834153413772583e-01,3.937669694423675537e-01,-4.178905114531517029e-02,-6.762077659368515015e-02
2.332010306417942047e-02,1.817156374454498291e-01,-5.459573864936828613e-01,-8.617056161165237427e-02,5.779578164219856262e-02,-1.578156054019927979e-01,1.660131663084030151e-01,3.505069613456726074e-01,-4.336293041706085205e-02,-1.946990936994552612e-01,1.938166171312332153e-01,3.760096058249473572e-02,-4.153085872530937195e-02,3.465837240219116211e-01,-1.321206688880920410e-01,-2.800823450088500977e-01
-1.319728642702102661e-01,1.710720360279083252e-01,-5.792505145072937012e-01,5.525018274784088135e-02,1.327190361917018890e-02,-6.981258839368820190e-02,2.337265759706497192e-02,3.336313962936401367e-01,1.441837996244430542e-01,-2.060831785202026367e-01,-5.569885950535535812e-03,5.738061293959617615e-02,-1.367342621088027954e-01,2.978205382823944092e-01,-2.638784050941467285e-01,-3.991424441337585449e-01
-2.320581302046775818e-02,-6.202128157019615173e-02,-3.859222829341888428e-01,5.596362799406051636e-02,-1.181374490261077881e-02,-1.562165319919586182e-01,1.478009372949600220e-01,1.708095371723175049e-01,8.820056915283203125e-02,-1.316217631101608276e-01,2.419121004641056061e-02,9.960305690765380859e-02,-5.290523916482925415e-02,2.235281020402908325e-01,-2.307129353284835815e-01,-3.665305376052856445e-01
4.763411730527877808e-02,8.812376856803894043e-02,-3.195372819900512695e-01,9.865860641002655029e-02,2.076961286365985870e-02,-9.793938696384429932e-02,3.265498951077461243e-02,3.343094885349273682e-01,8.321775496006011963e-02,-2.178921997547149658e-01,4.206806421279907227e-03,2.233117073774337769e-02,-1.388664692640304565e-01,2.727905809879302979e-01,-3.311730623245239258e-01,-2.557312846183776855e-01
1.222980618476867676e-01,6.534370034933090210e-02,-4.257487654685974121e-01,1.421478241682052612e-01,-3.019358776509761810e-02,8.602672815322875977e-02,2.321662567555904388e-02,2.663802206516265869e-01,-1.003513783216476440e-01,-9.987594187259674072e-02,-8.760619908571243286e-02,-2.683457732200622559e-01,4.851322621107101440e-02,8.287782222032546997e-02,-2.776303887367248535e-01,-1.975056082010269165e-01
3.111446090042591095e-02,2.565601766109466553e-01,-1.824531406164169312e-01,-1.574870198965072632e-02,-5.781850195489823818e-04,2.255417220294475555e-02,1.303998231887817383e-01,1.034416705369949341e-01,-1.369750946760177612e-01,1.016954258084297180e-01,-5.817230418324470520e-02,-1.034642234444618225e-01,-4.563004523515701294e-02,1.700839549303054810e-01,-1.934022605419158936e-01,-2.804363369941711426e-01
-3.069990500807762146e-02,2.544030547142028809e-01,-6.697976589202880859e-02,-4.180246219038963318e-02,-8.689796179533004761e-02,-1.119229793548583984e-01,8.814478665590286255e-02,5.738823115825653076e-02,-1.439012307673692703e-02,1.329775899648666382e-01,3.096453472971916199e-02,-3.654859587550163269e-02,-6.486158072948455811e-02,4.813495650887489319e-02,-3.261899948120117188e-01,-2.834960520267486572e-01
3.965429496020078659e-03,6.947869062423706055e-02,5.377260595560073853e-02,-1.133114919066429138e-01,-6.433121860027313232e-02,2.205794751644134521e-01,-2.801135778427124023e-01,-8.462545275688171387e-02,6.179043091833591461e-03,1.100669279694557190e-01,1.467758566141128540e-01,-8.157078176736831665e-03,-9.059357643127441406e-02,-1.700971275568008423e-02,-6.301070749759674072e-02,-3.720903396606445312e-02
-7.061420008540153503e-03,1.912201009690761566e-02,-1.038374900817871094e-01,6.351538468152284622e-03,1.591776125133037567e-02,-1.845015883445739746e-01,1.088143140077590942e-02,2.375864833593368530e-01,-2.219797857105731964e-02,-1.945065706968307495e-01,-5.931778997182846069e-02,7.468625158071517944e-02,7.370945066213607788e-02,8.124399185180664062e-02,-2.214065045118331909e-01,7.128779590129852295e-02
-2.624083682894706726e-02,8.126685023307800293e-02,6.316530704498291016e-02,-3.352982923388481140e-02,-1.407798379659652710e-02,-5.337817221879959106e-02,3.440960496664047241e-02,6.019346415996551514e-02,8.089911937713623047e-02,-5.699857324361801147e-02,1.866333186626434326e-02,7.927766442298889160e-02,6.122516095638275146e-02,-6.313912570476531982e-02,7.932318747043609619e-02,-7.233531773090362549e-02
6.585249304771423340e-02,1.252703368663787842e-02,2.003347128629684448e-02,2.531691640615463257e-02,-8.185019344091415405e-02,-5.813859030604362488e-02,-3.464102372527122498e-02,5.813860893249511719e-02,6.069803237915039062e-02,-4.794164374470710754e-02,-3.835140541195869446e-02,-7.371895015239715576e-03,1.779772341251373291e-02,-2.758464589715003967e-02,-3.723618760704994202e-02,-2.703440561890602112e-02
-6.996775418519973755e-02,-8.140857517719268799e-02,1.441304013133049011e-02,-3.258207812905311584e-02,-8.524837344884872437e-02,7.291699945926666260e-02,3.612795099616050720e-02,1.444949209690093994e-02,-6.821619719266891479e-02,-8.304265141487121582e-02,-1.423440407961606979e-02,-2.047919854521751404e-02,-4.531383514404296875e-03,-2.421625703573226929e-02,-8.362684398889541626e-02,4.048536717891693115e-02
1.809155791997909546e-01,-6.347784399986267090e-02,-8.326917886734008789e-02,4.944788292050361633e-02,-2.774124965071678162e-02,2.096646428108215332e-01,1.823141574859619141e-01,-1.219505071640014648e-01,-7.181575894355773926e-02,-9.912917017936706543e-02,-4.964830726385116577e-02,7.361566647887229919e-03,-3.900688514113426208e-02,-1.153828203678131104e-01,1.701804101467132568e-01,-3.939728438854217529e-02
2.569281458854675293e-01,-2.212823480367660522e-01,3.058196790516376495e-02,7.815995067358016968e-02,-8.035068958997726440e-02,1.207325235009193420e-01,2.082715481519699097e-01,-1.707421988248825073e-01,4.992899671196937561e-02,2.096327580511569977e-02,-1.680696904659271240e-01,1.206243559718132019e-01,-1.179647222161293030e-01,-7.636331021785736084e-02,2.297632843255996704e-01,-1.022986322641372681e-01
1.123777180910110474e-01,-2.332919836044311523e-01,-1.686413288116455078e-01,2.541742920875549316e-01,1.176975220441818237e-01,-2.127240151166915894e-01,8.838019520044326782e-02,-2.003383636474609375e-01,-1.204933598637580872e-02,-1.016239747405052185e-01,-5.686267092823982239e-02,7.477888464927673340e-02,-8.965969085693359375e-02,-5.735513754189014435e-03,1.220017597079277039e-01,-1.000004932284355164e-01
-4.847916215658187866e-02,-8.291433751583099365e-02,-2.209865897893905640e-01,2.981226518750190735e-02,2.359755523502826691e-02,-2.193650901317596436e-01,-4.053410142660140991e-02,-1.639624834060668945e-01,7.315200567245483398e-02,-2.218688130378723145e-01,1.270916014909744263e-01,2.225577682256698608e-01,-1.337962299585342407e-01,2.940572202205657959e-01,-6.679352372884750366e-03,-2.907171547412872314e-01
-1.081507205963134766e-01,-3.663164749741554260e-02,-4.984645918011665344e-02,-2.605441510677337646e-01,-1.370521541684865952e-02,6.133606657385826111e-02,-9.697337448596954346e-02,-6.966514140367507935e-02,2.620031535625457764e-01,-1.223887410014867783e-02,1.072474643588066101e-01,2.301927953958511353e-01,2.238106913864612579e-02,1.056104451417922974e-01,1.884217709302902222e-01,-2.722997963428497314e-01
7.671929150819778442e-02,3.362716361880302429e-02,-6.518941372632980347e-02,-1.516849547624588013e-01,3.510136902332305908e-02,-1.823767423629760742e-01,7.931792736053466797e-02,-1.609291136264801025e-01,5.907337740063667297e-02,-8.197746425867080688e-02,5.623927712440490723e-02,5.413042381405830383e-02,4.796081781387329102e-02,-4.424889013171195984e-02,-3.529480099678039551e-02,-3.471039831638336182e-01
4.281263425946235657e-02,-4.332955181598663330e-02,-1.375584602355957031e-01,-1.960487961769104004e-01,1.321429610252380371e-01,-1.110085174441337585e-01,-1.306812930852174759e-02,-3.149064183235168457e-01,1.472446322441101074e-01,3.789564967155456543e-02,9.871254861354827881e-02,2.608578801155090332e-01,-7.161729037761688232e-03,6.471324712038040161e-02,2.333343178033828735e-01,-2.150098830461502075e-01
4.624525085091590881e-03,3.615675568580627441e-01,-1.455374807119369507e-01,-4.343423247337341309e-01,1.925757825374603271e-01,2.693252265453338623e-02,-6.430704891681671143e-02,-1.532585322856903076e-01,1.247300207614898682e-01,8.866188675165176392e-02,3.250134289264678955e-01,1.506629735231399536e-01,5.788888037204742432e-02,-8.071266114711761475e-02,-1.825764589011669159e-02,-3.152458071708679199e-01
-1.181364357471466064e-01,3.035887777805328369e-01,-2.502076625823974609e-01,-2.813541889190673828e-01,1.060194969177246094e-01,-1.028225198388099670e-01,1.437712907791137695e-01,-1.676377505064010620e-01,2.837240993976593018e-01,-1.523075103759765625e-01,2.714824378490447998e-01,2.203193753957748413e-01,5.403197556734085083e-02,-3.983508795499801636e-02,-8.899386972188949585e-03,-2.901854813098907471e-01
-2.939462475478649139e-02,3.230695426464080811e-01,4.581659287214279175e-02,-2.436704486608505249e-01,7.387860678136348724e-03,-3.183159977197647095e-03,1.383962035179138184e-01,-6.612735986709594727e-02,3.223831057548522949e-01,-2.027261704206466675e-01,1.920543909072875977e-01,2.143072634935379028e-01,-1.179255992174148560e-01,1.798035949468612671e-01,2.543738484382629395e-02,-1.928542107343673706e-01
-9.458103030920028687e-02,2.118929624557495117e-01,-7.710066437721252441e-02,-2.337636053562164307e-01,-6.482198834419250488e-02,1.328004151582717896e-01,2.512290775775909424e-01,-1.276310533285140991e-01,2.398123294115066528e-01,-9.854066371917724609e-02,2.062851935625076294e-01,1.367784440517425537e-01,-2.093668654561042786e-02,1.375980526208877563e-01,4.616482183337211609e-02,-2.706659138202667236e-01
-1.323544383049011230e-01,1.309023648500442505e-01,1.761420443654060364e-02,-1.188481226563453674e-01,-5.928684398531913757e-02,1.145715042948722839e-01,1.717973947525024414e-01,-2.258916497230529785e-01,2.842929959297180176e-01,-7.382643967866897583e-02,1.875505447387695312e-01,2.164485752582550049e-01,-4.587458446621894836e-02,1.310896575450897217e-01,2.095171511173248291e-01,-9.043107181787490845e-02
5.794832948595285416e-03,1.950246542692184448e-01,-1.784295774996280670e-02,-1.386768519878387451e-01,-3.108500838279724121e-01,1.540163606405258179e-01,2.543715238571166992e-01,-2.090739756822586060e-01,2.368228435516357422e-01,-1.809159368276596069e-01,3.956104815006256104e-01,1.030741110444068909e-01,-6.043894216418266296e-02,1.164760589599609375e-01,8.574177324771881104e-02,-3.680246174335479736e-01
-8.446323126554489136e-02,1.247346252202987671e-01,1.386924274265766144e-02,4.983521252870559692e-02,-2.157604992389678955e-01,1.418283302336931229e-02,2.307796776294708252e-01,2.231439575552940369e-02,2.867576479911804199e-01,-1.660339385271072388e-01,3.253039121627807617e-01,-6.297226250171661377e-02,9.490736573934555054e-02,2.075327187776565552e-02,1.166655775159597397e-02,-2.247674316167831421e-01
-5.981833860278129578e-02,1.384577304124832153e-01,7.961703836917877197e-02,-1.636104285717010498e-02,-2.318631708621978760e-01,-5.898515507578849792e-02,1.512792557477951050e-01,1.283131241798400879e-01,1.617865264415740967e-01,-1.088868081569671631e-01,3.903118669986724854e-01,-7.999385125003755093e-04,1.710977852344512939e-01,-4.926104843616485596e-02,6.616881117224693298e-03,-2.816418707370758057e-01
-2.651123702526092529e-02,2.343567162752151489e-01,1.159671172499656677e-01,-8.029304444789886475e-02,-1.801006346940994263e-01,-2.486121952533721924e-01,6.066890433430671692e-02,1.913375556468963623e-01,9.232959896326065063e-02,-2.199326455593109131e-01,3.993236720561981201e-01,-9.133525937795639038e-02,1.624664664268493652e-01,1.695541888475418091e-01,1.002401486039161682e-02,-2.635402083396911621e-01
-8.529116399586200714e-03,1.136655732989311218e-01,-5.230917781591415405e-02,-8.494102954864501953e-02,-1.486168503761291504e-01,-3.021970093250274658e-01,-2.147391065955162048e-02,1.552366018295288086e-01,2.360190451145172119e-01,-7.838366180658340454e-02,3.268629610538482666e-01,1.410753000527620316e-02,3.061044495552778244e-03,3.323245942592620850e-01,6.167286261916160583e-02,-1.766362488269805908e-01
-2.129596285521984100e-02,1.341475546360015869e-01,1.099485158920288086e-02,1.227131262421607971e-01,9.247699379920959473e-02,-3.696519136428833008e-01,-1.560170017182826996e-02,9.351977705955505371e-02,3.770630806684494019e-02,-2.574220001697540283e-01,2.035516351461410522e-01,5.222539231181144714e-02,1.576129794120788574e-01,1.650684028863906860e-01,-1.136240512132644653e-01,-4.142834842205047607e-01
9.605672955513000488e-02,2.170078828930854797e-02,-4.835721570998430252e-03,1.566006988286972046e-01,1.678437590599060059e-01,-1.697221845388412476e-01,-3.672513738274574280e-02,1.539796143770217896e-01,-1.128355935215950012e-01,-2.045097649097442627e-01,1.079675778746604919e-01,-1.373374462127685547e-02,1.157396733760833740e-01,1.623640209436416626e-01,-2.059432417154312134e-01,-3.822470903396606445e-01
8.624161779880523682e-02,-1.736900508403778076e-01,-1.588875614106655121e-02,2.903382480144500732e-02,2.278556860983371735e-02,-1.398908495903015137e-01,2.296900190412998199e-02,1.829641759395599365e-01,6.692483276128768921e-02,-4.629982635378837585e-02,1.665839552879333496e-01,-8.048143982887268066e-02,8.277713507413864136e-02,1.299917399883270264e-01,-1.195868179202079773e-01,-4.210524559020996094e-01
8.849688805639743805e-03,-8.535318821668624878e-02,-1.052452400326728821e-01,1.017441228032112122e-02,6.549587007611989975e-03,-1.224490180611610413e-01,1.224095448851585388e-01,2.172859311103820801e-01,-1.787247508764266968e-02,-8.740476518869400024e-02,1.712776906788349152e-02,3.053187951445579529e-02,4.835479892790317535e-03,7.183165103197097778e-02,-2.667467594146728516e-01,-4.252171218395233154e-01
-5.592621490359306335e-02,1.260147392749786377e-01,-9.008863568305969238e-02,1.460709571838378906e-01,1.948835104703903198e-01,-9.826783090829849243e-02,1.138330027461051941e-01,3.083078861236572266e-01,-2.825404703617095947e-01,-9.793027490377426147e-02,-2.564302980899810791e-01,-4.895715788006782532e-02,7.267696410417556763e-02,-1.163971126079559326e-01,-4.665444195270538330e-01,-2.036941051483154297e-01
1.987129449844360352e-01,-1.128994673490524292e-01,-1.257670819759368896e-01,-1.598846614360809326e-01,1.809316314756870270e-02,1.314151450060307980e-03,-4.964137077331542969e-02,2.471535950899124146e-01,-6.521619111299514771e-02,7.129114121198654175e-02,-4.632768779993057251e-02,-5.283711478114128113e-02,-1.801249943673610687e-02,5.449710786342620850e-02,-1.872156262397766113e-01,-3.589019477367401123e-01
4.761534184217453003e-02,1.492830067873001099e-01,-1.276460886001586914e-01,-3.426995575428009033e-01,-2.059524357318878174e-01,1.376259513199329376e-02,-4.351698979735374451e-02,6.017771735787391663e-02,8.756484091281890869e-02,-3.744844580069184303e-03,1.663889288902282715e-01,9.502343018539249897e-04,-1.127489432692527771e-01,9.249430894851684570e-02,-1.818417310714721680e-01,-1.070119589567184448e-01
-4.962086677551269531e-03,9.134951978921890259e-02,-5.276812240481376648e-02,-2.052267640829086304e-01,-1.926784515380859375e-01,8.547651022672653198e-02,1.560385525226593018e-01,1.155439764261245728e-01,1.445288211107254028e-01,7.279583066701889038e-02,4.943634569644927979e-02,2.037099748849868774e-02,-1.366393119096755981e-01,8.512712270021438599e-02,9.784340858459472656e-02,1.370495855808258057e-01
-1.664183288812637329e-01,1.495903730392456055e-01,5.326911807060241699e-03,-1.648454368114471436e-01,-4.170887917280197144e-02,1.169693842530250549e-01,-6.355731189250946045e-02,-2.883281558752059937e-02,1.580529659986495972e-02,1.410121023654937744e-01,1.321960985660552979e-01,-8.289077132940292358e-02,-2.306511066854000092e-02,1.508572250604629517e-01,4.863283038139343262e-02,-8.901099674403667450e-03
7.649481296539306641e-02,-3.963480517268180847e-02,-4.149996861815452576e-02,8.548754453659057617e-02,6.191278994083404541e-02,2.080307155847549438e-02,5.364179611206054688e-02,-7.497259974479675293e-02,6.658118963241577148e-02,-6.900861114263534546e-02,2.363049983978271484e-02,-1.944455504417419434e-02,4.804497957229614258e-02,5.102775990962982178e-03,3.034529834985733032e-02,4.805903136730194092e-02
-8.040479570627212524e-02,-2.844522148370742798e-02,-7.881294190883636475e-02,-2.745861187577247620e-02,5.386760830879211426e-02,-2.499390393495559692e-02,-2.698369696736335754e-02,-8.100564032793045044e-02,5.535402894020080566e-02,4.702211916446685791e-02,6.301909685134887695e-02,-4.055808484554290771e-02,3.289278596639633179e-02,-7.231716811656951904e-02,2.878826111555099487e-02,-7.163360714912414551e-02
6.588312331587076187e-03,5.950053781270980835e-02,-4.978222772479057312e-02,1.002434790134429932e-01,3.105353936553001404e-02,2.141664326190948486e-01,1.245000734925270081e-01,-1.914743334054946899e-01,9.154168516397476196e-02,-5.506110563874244690e-02,1.341038942337036133e-01,1.492163389921188354e-01,1.913719177246093750e-01,-1.189864575862884521e-01,2.660496346652507782e-02,-1.478557139635086060e-01
-1.035226210951805115e-01,-2.842549234628677368e-03,7.755050063133239746e-02,-1.546414103358983994e-02,-2.144585102796554565e-01,-3.454371541738510132e-02,-3.838941454887390137e-02,-2.904794514179229736e-01,2.305194884538650513e-01,2.471604943275451660e-01,-4.206734150648117065e-02,9.090206772089004517e-02,-1.002748683094978333e-02,7.240399718284606934e-02,1.787778437137603760e-01,-3.228615969419479370e-02
1.067094411700963974e-02,-2.607029080390930176e-01,-1.746999621391296387e-01,1.146839708089828491e-01,-1.532483566552400589e-02,-1.628429740667343140e-01,1.473392918705940247e-02,-5.434212684631347656e-01,3.454945981502532959e-01,1.362321525812149048e-01,1.533883996307849884e-02,2.273338586091995239e-01,-1.193860173225402832e-01,7.133926451206207275e-02,2.996748089790344238e-01,-2.866131067276000977e-01
-1.381675601005554199e-01,-1.276493072509765625e-01,-2.190528064966201782e-01,-1.465110033750534058e-01,-7.440970093011856079e-02,-1.479499191045761108e-01,-5.314929783344268799e-02,-2.203616052865982056e-01,4.027360379695892334e-01,2.061969228088855743e-02,-1.761294342577457428e-02,1.974424123764038086e-01,-9.314225614070892334e-02,2.120867818593978882e-01,3.795614838600158691e-01,-3.125070035457611084e-01
7.136291265487670898e-02,-1.064807772636413574e-01,-2.136520594358444214e-01,1.405818611383438110e-01,1.233513653278350830e-01,3.528100997209548950e-02,-7.039271295070648193e-02,-1.517315059900283813e-01,1.179344207048416138e-01,-6.508447229862213135e-02,1.124529689550399780e-01,5.874301865696907043e-02,-4.702058061957359314e-02,1.735042184591293335e-01,2.607091963291168213e-01,-3.801058232784271240e-01
4.046539589762687683e-02,-1.731726080179214478e-01,-3.880742192268371582e-02,7.025093585252761841e-02,1.562822312116622925e-01,2.463775314390659332e-02,-1.736303269863128662e-01,-1.873792856931686401e-01,-5.885815480723977089e-04,1.447140984237194061e-02,8.424226194620132446e-02,1.312871724367141724e-01,9.973027557134628296e-02,2.180680818855762482e-02,1.324581801891326904e-01,-3.593584597110748291e-01
5.809733644127845764e-02,-7.936281710863113403e-02,6.603943556547164917e-02,4.040910303592681885e-02,2.120366692543029785e-01,-1.430475860834121704e-01,-1.096686571836471558e-01,-1.076300740242004395e-01,2.494224719703197479e-02,4.419817030429840088e-02,2.098186314105987549e-02,6.318924576044082642e-02,-7.639738032594323158e-04,1.299653947353363037e-01,-2.013506926596164703e-02,-3.408159315586090088e-01
-3.696630522608757019e-02,4.948193207383155823e-02,7.994406670331954956e-02,-2.205698750913143158e-02,2.133689075708389282e-01,-1.499102562665939331e-01,-1.856563687324523926e-01,-1.932514086365699768e-02,2.739812992513179779e-02,4.509780183434486389e-02,-3.470626100897789001e-02,7.956597954034805298e-02,2.707736566662788391e-02,2.650128304958343506e-01,5.570627376437187195e-02,-2.651282250881195068e-01
-8.654821664094924927e-02,1.815740019083023071e-01,4.964081943035125732e-02,-2.272906005382537842e-01,1.682892888784408569e-01,-3.236596286296844482e-02,-1.017748638987541199e-01,6.589848548173904419e-02,2.641852796077728271e-01,1.294843852519989014e-01,9.664335846900939941e-02,1.376183629035949707e-01,-1.076673623174428940e-02,1.578933000564575195e-01,-1.577931493520736694e-01,-2.103151679039001465e-01
-1.130269281566143036e-02,1.589533500373363495e-02,5.185592174530029297e-02,-1.420735940337181091e-02,-1.406283378601074219e-01,1.698947995901107788e-01,-4.821696132421493530e-02,1.465158611536026001e-01,2.383348494768142700e-01,1.663260720670223236e-02,1.813199967145919800e-01,1.176567468792200089e-02,3.363330662250518799e-02,1.570189297199249268e-01,-4.318009689450263977e-02,-1.489275246858596802e-01
-5.917157232761383057e-02,-4.599836096167564392e-02,4.773245006799697876e-02,6.759250909090042114e-02,-2.050920277833938599e-01,2.447461634874343872e-01,-3.743659704923629761e-02,1.496618092060089111e-01,8.327540755271911621e-02,-6.358596682548522949e-02,2.164539843797683716e-01,-6.175434216856956482e-02,4.583454877138137817e-02,1.584134995937347412e-01,6.051298603415489197e-02,-3.308841288089752197e-01
-6.349492818117141724e-02,2.400400042533874512e-01,1.852403879165649414e-01,-1.953430622816085815e-01,-2.091574817895889282e-01,2.442185580730438232e-01,3.060054033994674683e-02,3.544085100293159485e-02,2.960017025470733643e-01,7.646486163139343262e-02,3.385553881525993347e-02,-9.098156541585922241e-02,2.496687695384025574e-02,5.910393968224525452e-02,1.498932838439941406e-01,-1.652509272098541260e-01
-3.260680660605430603e-02,1.860540360212326050e-01,1.635281294584274292e-01,-1.841874420642852783e-01,-2.622432410717010498e-01,2.935530543327331543e-01,-5.013424437493085861e-03,2.749292366206645966e-02,1.766843795776367188e-01,-5.469086393713951111e-02,2.396300733089447021e-01,-4.148068651556968689e-02,1.013105586171150208e-01,1.204938217997550964e-01,1.073598042130470276e-01,-1.897638738155364990e-01
5.552008748054504395e-03,9.727757424116134644e-02,1.332018077373504639e-01,-7.263517379760742188e-02,-2.221811115741729736e-01,1.128029376268386841e-01,1.450600028038024902e-01,-1.122362166643142700e-01,1.676253974437713623e-01,1.070127338171005249e-01,1.265614777803421021e-01,8.208853006362915039e-02,1.486246883869171143e-01,4.598349332809448242e-02,1.329610645771026611e-01,-4.734186828136444092e-01
1.074980646371841431e-01,6.079170852899551392e-02,1.837682127952575684e-01,-1.037593707442283630e-01,-2.900778353214263916e-01,1.095126643776893616e-01,1.397874355316162109e-01,-3.920440748333930969e-02,2.245843559503555298e-01,8.422995358705520630e-02,2.100497335195541382e-01,1.005737185478210449e-01,1.420987099409103394e-01,6.403576582670211792e-02,1.463344693183898926e-01,-5.552930831909179688e-01
1.385254710912704468e-01,1.500660926103591919e-01,1.342851072549819946e-01,-3.811774030327796936e-02,9.271152317523956299e-03,-2.975113503634929657e-02,-1.296245306730270386e-01,1.025229319930076599e-01,2.189656943082809448e-01,8.703599125146865845e-02,2.748789191246032715e-01,-9.259604662656784058e-02,1.829524040222167969e-01,2.233361005783081055e-01,-7.128980010747909546e-02,-2.975472211837768555e-01
1.057702377438545227e-01,1.663018614053726196e-01,9.013027697801589966e-02,-3.668398782610893250e-02,1.507414225488901138e-02,-1.679146140813827515e-01,-1.604009270668029785e-01,1.211876571178436279e-01,2.217629849910736084e-01,1.506617642007768154e-03,2.797940373420715332e-01,-1.349399983882904053e-01,1.552062332630157471e-01,3.675256073474884033e-01,6.786451209336519241e-03,-4.590296149253845215e-01
-5.156217515468597412e-02,1.857861727476119995e-01,1.698828041553497314e-01,-6.403113901615142822e-02,-6.942108273506164551e-02,-3.217357397079467773e-02,-8.836171030998229980e-02,6.039420515298843384e-02,1.045581176877021790e-01,-4.138188064098358154e-02,1.897621303796768188e-01,-3.229095414280891418e-02,-1.011983305215835571e-02,1.676446348428726196e-01,-1.300244629383087158e-01,-3.250182271003723145e-01
-3.803638741374015808e-02,1.939264535903930664e-01,1.269204765558242798e-01,-5.010693892836570740e-02,-5.988625437021255493e-02,-1.545694004744291306e-02,-2.571211196482181549e-02,2.844024002552032471e-01,7.120029628276824951e-02,-1.063002347946166992e-01,2.049743235111236572e-01,-5.225817114114761353e-02,2.099071256816387177e-02,2.155195921659469604e-01,-1.397000849246978760e-01,-3.063110411167144775e-01
-1.311779022216796875e-01,2.860344946384429932e-02,1.158259734511375427e-01,1.258643250912427902e-02,-1.326064616441726685e-01,-7.226155698299407959e-02,7.521352171897888184e-02,1.091075018048286438e-01,9.261552989482879639e-02,2.362934686243534088e-02,3.372417092323303223e-01,-7.027441263198852539e-02,1.404079198837280273e-01,-4.384280368685722351e-02,-2.092532217502593994e-01,-3.370995223522186279e-01
1.884653046727180481e-02,4.354498535394668579e-02,1.365800201892852783e-01,-1.375165116041898727e-02,-5.191356688737869263e-02,5.455780029296875000e-02,1.128709986805915833e-01,1.023828908801078796e-01,7.414131611585617065e-02,-8.361603319644927979e-02,1.440688073635101318e-01,-1.380143910646438599e-01,1.376653015613555908e-01,7.764051202684640884e-03,-1.485764086246490479e-01,-2.588204145431518555e-01
5.017341673374176025e-02,7.236423343420028687e-02,-8.215206116437911987e-02,-1.775381416082382202e-01,1.670998185873031616e-01,-2.251922041177749634e-01,-2.501773647964000702e-02,3.588241934776306152e-01,-8.358126133680343628e-02,-1.174407452344894409e-01,5.885934084653854370e-02,-1.810701191425323486e-02,-1.589486934244632721e-02,1.526512503623962402e-01,-1.781592965126037598e-01,-1.210926994681358337e-01
9.710724651813507080e-02,-9.275617450475692749e-02,-4.905386269092559814e-02,5.004899948835372925e-02,8.159087598323822021e-02,-6.416110694408416748e-02,1.626788079738616943e-01,3.439970910549163818e-01,-5.817192420363426208e-02,-6.992757320404052734e-02,-2.375137060880661011e-02,-1.479668766260147095e-01,1.221343502402305603e-01,-4.979285225272178650e-02,-1.027048826217651367e-01,-2.786811888217926025e-01
-5.690168589353561401e-02,4.479140043258666992e-02,-9.222861379384994507e-02,-2.422553002834320068e-01,2.177692763507366180e-02,-8.276724070310592651e-02,-8.620621636509895325e-03,1.477983742952346802e-01,-4.029553756117820740e-02,1.202343031764030457e-01,2.013513445854187012e-01,-3.909043967723846436e-02,-3.334105014801025391e-02,1.495876908302307129e-01,-6.427895277738571167e-02,-2.690561488270759583e-02
5.819141119718551636e-02,-1.369491368532180786e-01,-1.377967149019241333e-01,-1.484761834144592285e-01,-2.593256235122680664e-01,1.393866837024688721e-01,7.351059466600418091e-02,8.510877192020416260e-02,2.946638688445091248e-02,-1.714254319667816162e-01,2.861894071102142334e-01,-1.163895651698112488e-01,-2.947314409539103508e-03,-4.391270875930786133e-02,4.449059814214706421e-02,1.365671455860137939e-01
3.354914858937263489e-02,-1.173558309674263000e-01,-1.934498697519302368e-01,-2.064865231513977051e-01,-1.893404573202133179e-01,1.218331977725028992e-01,-1.359307020902633667e-01,-5.385298654437065125e-02,4.023858904838562012e-02,-6.742577999830245972e-02,1.859615445137023926e-01,-9.059455245733261108e-02,1.468561738729476929e-01,7.275260239839553833e-02,7.871788740158081055e-02,6.094980239868164062e-02
8.134686946868896484e-02,-7.568841427564620972e-02,-3.653362765908241272e-02,5.279126763343811035e-02,-3.645464777946472168e-03,5.741310119628906250e-02,-3.103049099445343018e-02,8.454351127147674561e-02,9.630434215068817139e-03,2.684853971004486084e-02,3.693935275077819824e-02,2.690071612596511841e-02,-8.174335956573486328e-02,-3.489825129508972168e-02,-3.177426382899284363e-02,7.201895117759704590e-02
-4.866781085729598999e-02,-6.511134654283523560e-02,1.973859407007694244e-02,-5.996667593717575073e-02,-1.053700037300586700e-02,-3.319806233048439026e-02,9.599808603525161743e-02,-1.512397080659866333e-02,-3.141072019934654236e-02,-8.070833235979080200e-02,6.376284360885620117e-02,8.928154408931732178e-02,3.427700698375701904e-02,2.676334232091903687e-02,9.098125249147415161e-02,-4.198351502418518066e-02
6.790959089994430542e-02,2.116261273622512817e-01,2.065261602401733398e-01,1.214688196778297424e-01,-1.931309513747692108e-02,-1.318067908287048340e-01,8.218789100646972656e-02,1.347055733203887939e-01,-7.305629085749387741e-03,-7.566481083631515503e-02,-8.165948092937469482e-02,1.734882295131683350e-01,1.912008598446846008e-02,1.477094888687133789e-01,-6.677713990211486816e-02,9.650161862373352051e-02
-8.188454806804656982e-02,7.360126078128814697e-02,5.490919202566146851e-02,2.052985429763793945e-01,5.970979854464530945e-02,-1.094725281000137329e-01,-1.753607094287872314e-01,-1.984844505786895752e-01,8.616446703672409058e-02,-5.250965710729360580e-03,-1.033180877566337585e-01,2.663653790950775146e-01,-1.558183133602142334e-01,8.794101327657699585e-02,1.573989540338516235e-01,-1.862352341413497925e-01
9.469328820705413818e-02,-2.081289738416671753e-01,2.154572010040283203e-01,2.285560667514801025e-01,-4.274824261665344238e-02,1.651961058378219604e-01,-2.797899022698402405e-02,-1.451682299375534058e-01,-2.844184078276157379e-02,6.081806123256683350e-02,-1.779100745916366577e-01,-4.738795384764671326e-02,-7.863003993406891823e-04,-3.074847161769866943e-02,1.940990090370178223e-01,-8.024888485670089722e-02
7.501333951950073242e-02,-1.323373019695281982e-01,-1.409169472754001617e-02,2.505623176693916321e-02,1.144349426031112671e-01,-1.742722690105438232e-01,2.259883470833301544e-02,-7.562367618083953857e-02,6.442202627658843994e-02,-2.691897563636302948e-02,-3.046736717224121094e-01,2.062401920557022095e-01,-1.292374730110168457e-01,2.410850673913955688e-01,1.718352437019348145e-01,7.084984332323074341e-02
-3.045138902962207794e-02,8.432459831237792969e-02,8.138676732778549194e-02,1.990569680929183960e-01,5.932612344622612000e-02,-5.176080763339996338e-02,-5.253886058926582336e-02,-1.555445194244384766e-01,1.669378131628036499e-01,-4.757105559110641479e-02,-1.663113385438919067e-01,1.520037800073623657e-01,-1.137829348444938660e-01,2.288159430027008057e-01,4.380254074931144714e-03,-1.002338975667953491e-01
-2.608943171799182892e-02,-7.662783563137054443e-02,1.099184602499008179e-01,1.739664077758789062e-01,2.002212852239608765e-01,4.113520681858062744e-02,-1.801142990589141846e-01,-1.090850979089736938e-01,8.838921040296554565e-02,8.303796499967575073e-02,-1.087889522314071655e-01,1.952424049377441406e-01,-7.098969072103500366e-02,3.155735731124877930e-01,-5.081607028841972351e-02,3.424972668290138245e-02
8.973412960767745972e-02,-6.558877229690551758e-02,-1.577791571617126465e-02,7.978127896785736084e-02,3.572894260287284851e-02,-5.619683861732482910e-02,-1.655873656272888184e-01,-4.415759816765785217e-02,1.262334883213043213e-01,1.696102023124694824e-01,4.511617124080657959e-02,1.175060123205184937e-01,-2.175165265798568726e-01,2.392774969339370728e-01,1.636777259409427643e-02,-6.513006985187530518e-02
5.770823732018470764e-02,-8.996427804231643677e-02,6.436652503907680511e-03,-1.988170295953750610e-02,1.694463342428207397e-01,-3.377574309706687927e-02,-1.666979789733886719e-01,6.679404526948928833e-02,2.402770332992076874e-02,1.323972940444946289e-01,-6.261996179819107056e-02,1.623512953519821167e-01,-1.096768155694007874e-01,2.238871902227401733e-01,-1.861147768795490265e-02,-1.361170709133148193e-01
-9.681692719459533691e-02,1.937230862677097321e-02,5.599901452660560608e-02,9.951327741146087646e-02,-5.217406153678894043e-02,4.236208647489547729e-02,-1.474514901638031006e-01,8.706499636173248291e-02,1.170161813497543335e-01,1.932553797960281372e-01,-5.227893590927124023e-02,9.069139510393142700e-02,-1.108908429741859436e-01,1.714681982994079590e-01,-3.876279294490814209e-02,-4.501516744494438171e-02
2.617903612554073334e-02,1.043933853507041931e-01,-1.590858213603496552e-02,1.004038453102111816e-01,-2.413280606269836426e-01,2.026545107364654541e-01,4.675118252635002136e-02,2.057639956474304199e-01,1.718923002481460571e-01,1.061800196766853333e-01,3.759378939867019653e-02,2.286600321531295776e-02,-1.297166347503662109e-01,1.401313231326639652e-03,6.268043071031570435e-02,3.110780147835612297e-03
-3.607231751084327698e-02,1.533864736557006836e-01,-1.956141926348209381e-02,8.841186761856079102e-02,-1.498861312866210938e-01,2.562815845012664795e-01,9.130137413740158081e-02,1.636283099651336670e-01,1.612548828125000000e-01,8.551729843020439148e-03,1.825808198191225529e-03,-1.125080510973930359e-02,-1.138155385851860046e-01,1.498309671878814697e-01,8.824392408132553101e-02,-5.085414275527000427e-02
-8.410623669624328613e-02,3.295964300632476807e-01,2.199462056159973145e-02,-1.484271287918090820e-01,-1.346454620361328125e-01,1.834086775779724121e-01,1.060457155108451843e-01,2.153297811746597290e-01,2.024260908365249634e-01,1.118642538785934448e-01,-1.076129004359245300e-01,9.778957813978195190e-02,-7.137111574411392212e-02,2.214658409357070923e-01,2.668543756008148193e-01,-4.323141276836395264e-02
-3.988276701420545578e-03,2.001339048147201538e-01,5.729595199227333069e-02,-1.268838346004486084e-01,-1.012061908841133118e-01,2.850362360477447510e-01,1.061196923255920410e-01,3.227862119674682617e-01,2.156383097171783447e-01,2.439745217561721802e-01,4.873220250010490417e-02,-2.592588402330875397e-02,-8.942920714616775513e-02,1.562040895223617554e-01,2.708972990512847900e-01,1.747967861592769623e-02
8.373971283435821533e-02,3.166690766811370850e-01,6.187072768807411194e-02,-9.205703437328338623e-02,-5.382845178246498108e-03,3.613505959510803223e-01,9.257294982671737671e-02,1.420141607522964478e-01,2.244761437177658081e-01,2.071214169263839722e-01,3.570422902703285217e-02,-3.563393652439117432e-02,-6.502386182546615601e-02,7.910798490047454834e-02,3.212525546550750732e-01,-7.186473160982131958e-02
7.554958760738372803e-02,3.649400472640991211e-01,2.637759037315845490e-02,7.353201508522033691e-02,-1.441794726997613907e-02,3.392842411994934082e-01,1.897260546684265137e-02,1.928694099187850952e-01,1.987671554088592529e-01,3.273420929908752441e-01,1.670091599225997925e-02,-7.332272827625274658e-02,-3.406034037470817566e-02,1.644088923931121826e-01,3.783799111843109131e-01,9.797248058021068573e-03
1.552526205778121948e-01,2.977208495140075684e-01,1.845099963247776031e-02,2.016788721084594727e-01,5.839206650853157043e-02,2.651021778583526611e-01,-5.824211519211530685e-03,3.436501026153564453e-01,1.841993480920791626e-01,4.145968258380889893e-01,5.746760219335556030e-02,-1.355265974998474121e-01,-2.416043542325496674e-02,2.197517603635787964e-01,3.097530901432037354e-01,-1.293848156929016113e-01
-1.917214132845401764e-02,1.903433054685592651e-01,1.248771175742149353e-01,1.170130223035812378e-01,-3.971237316727638245e-02,1.573694497346878052e-01,-1.198047995567321777e-01,2.858199179172515869e-01,2.611607015132904053e-01,4.400725960731506348e-01,1.960398815572261810e-02,-4.571792110800743103e-02,-1.381750125437974930e-02,2.139329910278320312e-01,2.289046943187713623e-01,-2.011686265468597412e-01
-4.065736010670661926e-02,1.788762658834457397e-01,1.624158024787902832e-01,1.944884955883026123e-01,-1.579080820083618164e-01,1.737192273139953613e-01,-7.896046340465545654e-02,2.949572503566741943e-01,1.435696929693222046e-01,2.310854494571685791e-01,1.431476175785064697e-01,-2.202660888433456421e-01,-1.937374845147132874e-02,7.267625629901885986e-02,-2.042181640863418579e-01,-5.505992099642753601e-02
9.306880645453929901e-03,1.957290321588516235e-01,1.299647241830825806e-01,1.001240406185388565e-02,-2.832326889038085938e-01,2.398980557918548584e-01,1.411590445786714554e-02,1.539234519004821777e-01,1.962877362966537476e-01,5.770474299788475037e-02,1.459074467420578003e-01,-2.257277816534042358e-01,-5.875475332140922546e-02,1.221664920449256897e-01,-9.287912398576736450e-02,-1.361247450113296509e-01
8.682060241699218750e-02,1.557754576206207275e-01,8.189187198877334595e-02,-3.832247108221054077e-02,-7.450582832098007202e-02,4.630926996469497681e-02,2.184490114450454712e-02,1.090375557541847229e-01,9.759099036455154419e-02,-8.966681361198425293e-02,-3.155230730772018433e-02,-2.412518300116062164e-02,4.279771074652671814e-02,-1.423947163857519627e-03,-1.576747596263885498e-01,6.457152776420116425e-03
5.236837640404701233e-02,8.424545079469680786e-02,6.426955759525299072e-02,-7.195466756820678711e-02,-2.988835051655769348e-02,3.866680711507797241e-02,-1.512756198644638062e-02,2.706644684076309204e-02,1.645613647997379303e-02,-2.251509390771389008e-02,-2.872261963784694672e-02,-1.472712843678891659e-03,1.267274171113967896e-01,9.327662736177444458e-02,-2.727686166763305664e-01,-3.086131624877452850e-02
2.166584730148315430e-01,-1.014960333704948425e-01,-3.023386187851428986e-02,-6.750090420246124268e-02,-2.959075383841991425e-02,-3.325987607240676880e-02,3.714703395962715149e-02,7.096900790929794312e-02,-1.656587049365043640e-02,-1.105534806847572327e-01,1.878023147583007812e-01,-7.907025516033172607e-02,7.028276473283767700e-02,-6.814626045525074005e-03,-1.648648381233215332e-01,4.519613087177276611e-02
3.552867174148559570e-01,-6.305031478404998779e-02,7.943477481603622437e-03,-1.350108385086059570e-01,-2.423376888036727905e-01,-2.109758406877517700e-01,2.312332391738891602e-01,2.964674234390258789e-01,1.104525923728942871e-01,-3.109827637672424316e-01,1.109471991658210754e-01,-1.964117437601089478e-01,4.060741886496543884e-02,1.102369204163551331e-01,-2.684554755687713623e-01,-1.168783158063888550e-01
1.415470093488693237e-01,-1.001878231763839722e-01,-2.265272289514541626e-02,-3.873316943645477295e-01,-6.257946044206619263e-02,-7.062662392854690552e-03,7.457190006971359253e-02,2.792036831378936768e-01,1.028027534484863281e-01,-7.698784023523330688e-02,7.097326219081878662e-02,2.010273635387420654e-01,-2.773558348417282104e-02,3.945097923278808594e-01,9.179452806711196899e-02,7.678271085023880005e-02
1.062478348612785339e-01,-1.318687349557876587e-01,-1.467213332653045654e-01,-1.455407291650772095e-01,-2.625666260719299316e-01,-5.259210709482431412e-03,-1.706080138683319092e-02,2.457139343023300171e-01,6.382433231920003891e-03,-1.925203800201416016e-01,1.440262496471405029e-01,-1.396914422512054443e-01,-3.956552594900131226e-02,2.932463074102997780e-03,1.820801347494125366e-01,1.730640828609466553e-01
1.994360983371734619e-02,-9.629912674427032471e-02,-2.131569385528564453e-01,-4.718611016869544983e-02,-2.029287517070770264e-01,-1.599568873643875122e-02,1.371106803417205811e-01,1.286294162273406982e-01,2.134487777948379517e-01,-1.006220374256372452e-02,1.831204593181610107e-01,-8.385992795228958130e-02,-2.890128642320632935e-02,1.139460057020187378e-01,8.448115736246109009e-02,1.597262620925903320e-01
-7.918363809585571289e-02,6.535569578409194946e-02,4.389458522200584412e-02,-3.252487257122993469e-02,-5.664666742086410522e-02,3.263721242547035217e-02,-1.812988147139549255e-02,3.377422690391540527e-03,-8.629537373781204224e-02,6.942280381917953491e-02,-5.527596920728683472e-02,-5.902615562081336975e-02,-3.678520023822784424e-02,2.552272379398345947e-02,2.440720796585083008e-02,4.967533424496650696e-02
1.479593813419342041e-01,-1.468338072299957275e-01,3.298928216099739075e-02,2.421091198921203613e-01,1.752907633781433105e-01,-1.219000890851020813e-01,-1.303581297397613525e-01,-1.523564755916595459e-01,1.490118075162172318e-02,4.849772155284881592e-02,-2.191280871629714966e-01,1.186371147632598877e-01,-1.887741982936859131e-01,3.625446185469627380e-02,1.062053516507148743e-01,-1.598656624555587769e-01
-5.973237007856369019e-02,4.256654158234596252e-02,1.435175091028213501e-01,1.854659467935562134e-01,-2.025383338332176208e-02,-1.287525147199630737e-01,-3.005553968250751495e-02,6.817591190338134766e-02,8.165681362152099609e-02,1.082103326916694641e-01,-7.120328955352306366e-04,6.181643903255462646e-02,2.426427975296974182e-02,7.207912206649780273e-02,-1.124335173517465591e-02,2.180059105157852173e-01
1.021144762635231018e-01,-8.438365161418914795e-02,2.545642852783203125e-01,2.545084953308105469e-01,7.558265328407287598e-02,4.471951723098754883e-02,1.857641735114157200e-03,-1.861200034618377686e-01,1.053351387381553650e-01,-2.697292268276214600e-01,-1.936999261379241943e-01,1.723485589027404785e-01,-2.056825608015060425e-01,2.028173506259918213e-01,2.793199419975280762e-01,-1.131046339869499207e-01
2.892075479030609131e-01,-2.612417340278625488e-01,1.142203342169523239e-02,1.963299661874771118e-01,9.525995701551437378e-02,4.917935654520988464e-02,-3.202001750469207764e-02,-2.971952557563781738e-01,-1.213821843266487122e-01,-1.345039904117584229e-01,-2.227566540241241455e-01,2.884640097618103027e-01,-1.359768807888031006e-01,2.988467551767826080e-02,2.569429278373718262e-01,-3.826140165328979492e-01
1.738588213920593262e-01,-5.181571096181869507e-02,9.753851592540740967e-02,-9.683594852685928345e-02,9.013316594064235687e-03,-9.099923074245452881e-02,1.638183929026126862e-02,-2.089099138975143433e-01,1.406341493129730225e-01,-1.041802018880844116e-01,-4.745121672749519348e-02,1.408293247222900391e-01,-1.908915638923645020e-01,1.433080136775970459e-01,5.094972625374794006e-02,-2.029361128807067871e-01
6.423693150281906128e-02,-5.546761676669120789e-02,1.615727841854095459e-01,8.439601212739944458e-02,7.144106924533843994e-02,7.695914804935455322e-02,-2.247401028871536255e-01,-1.030940860509872437e-01,2.066442556679248810e-02,1.036516949534416199e-01,-1.430619359016418457e-01,1.340543776750564575e-01,-1.163694486021995544e-01,3.098998069763183594e-01,6.972234696149826050e-02,-2.222215086221694946e-01
6.216389685869216919e-02,-1.197873875498771667e-01,8.900640159845352173e-02,-1.838300563395023346e-02,-1.473844647407531738e-01,1.799092888832092285e-01,-2.734512686729431152e-01,-7.287803106009960175e-03,1.454462409019470215e-01,-1.092432253062725067e-02,1.028097420930862427e-02,9.924470633268356323e-02,-9.297246579080820084e-04,1.743946373462677002e-01,-1.934993267059326172e-01,-1.352598220109939575e-01
1.088455393910408020e-01,-1.861096918582916260e-01,2.116914838552474976e-03,1.262842863798141479e-01,-5.010477453470230103e-02,-3.206507861614227295e-02,-1.895039677619934082e-01,-1.434971764683723450e-02,2.101058214902877808e-01,4.745813831686973572e-02,5.514957383275032043e-02,8.523377776145935059e-02,-1.538938730955123901e-01,3.367712795734405518e-01,-7.350019179284572601e-03,-9.847495704889297485e-02
-2.432116161799058318e-04,-7.266398519277572632e-02,1.467967927455902100e-01,6.616579741239547729e-02,3.703629970550537109e-02,5.594127997756004333e-02,-1.151926815509796143e-01,2.721780166029930115e-02,5.112289800308644772e-04,4.974023997783660889e-02,-5.901446565985679626e-02,9.952230751514434814e-02,-3.956637904047966003e-02,2.829685211181640625e-01,-3.041941905394196510e-03,2.529340330511331558e-03
-5.009046290069818497e-03,1.910482496023178101e-01,8.440162241458892822e-02,1.336329132318496704e-01,-6.732273101806640625e-02,9.818580746650695801e-02,-5.874669179320335388e-02,1.734166294336318970e-01,1.177366226911544800e-01,1.572631150484085083e-01,3.903066366910934448e-02,5.729828774929046631e-02,-5.087160319089889526e-02,1.592700183391571045e-01,-9.490907937288284302e-02,-6.288331467658281326e-03
-4.281637817621231079e-02,1.457644701004028320e-01,1.976893246173858643e-01,1.114720851182937622e-01,-1.480919774621725082e-02,1.444847732782363892e-01,-8.305161446332931519e-02,2.225071638822555542e-01,9.253092110157012939e-02,-2.793960273265838623e-02,-4.487271979451179504e-02,-3.597589582204818726e-02,3.383378684520721436e-02,1.946193724870681763e-01,-3.523955121636390686e-02,5.770072713494300842e-02
1.061104610562324524e-02,2.788373529911041260e-01,2.008065730333328247e-01,7.659915834665298462e-02,2.722472511231899261e-02,1.325460970401763916e-01,1.183768212795257568e-01,1.468706279993057251e-01,1.466706693172454834e-01,8.277849853038787842e-02,-1.169335749000310898e-02,-1.821347884833812714e-02,-5.307790264487266541e-02,2.461527287960052490e-01,1.599520742893218994e-01,1.448383182287216187e-01
-4.852126911282539368e-02,1.927166432142257690e-01,1.712187677621841431e-01,1.104307081550359726e-02,4.697041586041450500e-03,1.583129167556762695e-01,1.899009197950363159e-01,1.677225232124328613e-01,1.928130090236663818e-01,2.004475146532058716e-01,6.000568345189094543e-02,2.735270373523235321e-02,-4.392291232943534851e-02,1.511551439762115479e-01,1.865391731262207031e-01,1.633408963680267334e-01
-3.624264523386955261e-02,3.004054725170135498e-01,7.924051582813262939e-02,1.454558502882719040e-02,-2.559696137905120850e-02,2.280489206314086914e-01,2.836525440216064453e-01,2.283069789409637451e-01,1.915710419416427612e-01,2.180963307619094849e-01,-3.913893923163414001e-02,1.452012807130813599e-01,6.992512941360473633e-02,1.218291372060775757e-01,2.659555375576019287e-01,7.960454374551773071e-02
1.671610176563262939e-01,3.899625539779663086e-01,7.479609455913305283e-03,-6.142443418502807617e-02,1.825775057077407837e-01,3.260850608348846436e-01,1.808635443449020386e-01,3.474711179733276367e-01,2.099741250276565552e-01,2.757772505283355713e-01,7.386216521263122559e-02,-4.424170777201652527e-02,-4.086197167634963989e-02,1.523644030094146729e-01,3.818928003311157227e-01,1.352929770946502686e-01
2.305615097284317017e-01,2.966677546501159668e-01,2.424336373805999756e-01,5.199081450700759888e-02,8.930251002311706543e-02,4.559936523437500000e-01,1.703595817089080811e-01,2.742400467395782471e-01,2.354499995708465576e-01,2.332250922918319702e-01,-1.420720070600509644e-01,-9.162918478250503540e-02,-1.218636259436607361e-01,2.848234772682189941e-01,4.227811098098754883e-01,3.025282621383666992e-01
2.010504454374313354e-01,2.884593904018402100e-01,2.068910300731658936e-01,2.010685056447982788e-01,8.347264677286148071e-02,3.001834154129028320e-01,-5.769034475088119507e-02,3.810560107231140137e-01,1.729157194495201111e-02,2.798261344432830811e-01,-6.053960323333740234e-02,-2.177855670452117920e-01,4.921871051192283630e-02,2.499091178178787231e-01,3.235718607902526855e-01,1.144376844167709351e-01
2.218594849109649658e-01,1.426834911108016968e-01,2.021188586950302124e-01,1.392809152603149414e-01,-1.626570075750350952e-01,1.570574194192886353e-01,-7.489749789237976074e-02,3.815066814422607422e-01,1.381649672985076904e-01,2.287300676107406616e-01,5.950866267085075378e-02,-1.994827240705490112e-01,-1.746457070112228394e-03,3.116123974323272705e-01,1.128119453787803650e-01,3.464471176266670227e-02
7.810395956039428711e-02,5.116087198257446289e-02,2.327470332384109497e-01,1.989666372537612915e-01,-1.430839747190475464e-01,1.572540104389190674e-01,-9.205628186464309692e-02,9.718371927738189697e-02,1.212026253342628479e-01,1.189899966120719910e-01,1.932723522186279297e-01,-1.460080146789550781e-01,1.037371158599853516e-01,1.215173676609992981e-01,1.404445916414260864e-01,6.683684885501861572e-02
2.419390231370925903e-01,-5.239201709628105164e-02,1.774509847164154053e-01,1.847369074821472168e-01,-2.380391508340835571e-01,1.535910815000534058e-01,-6.050382740795612335e-03,9.895658120512962341e-03,1.252029091119766235e-01,9.099598973989486694e-02,4.091653600335121155e-02,-1.144359558820724487e-01,-4.614578559994697571e-02,1.107576638460159302e-01,5.693562328815460205e-02,1.380476057529449463e-01
2.068017609417438507e-02,-1.100471541285514832e-01,3.602891042828559875e-02,9.397330880165100098e-02,-2.921766042709350586e-02,5.316051840782165527e-02,-6.446477025747299194e-02,3.134137764573097229e-02,3.705379785969853401e-03,1.018662005662918091e-01,-3.783883526921272278e-02,-1.188045293092727661e-01,6.423489749431610107e-02,-5.976007878780364990e-02,-3.731283172965049744e-02,1.490673124790191650e-01
3.640891984105110168e-02,-1.085975021123886108e-01,1.112555190920829773e-01,-3.668467700481414795e-02,-1.172064766287803650e-01,2.112516947090625763e-02,-2.995174564421176910e-02,2.319720014929771423e-02,5.405011773109436035e-02,8.414821326732635498e-02,7.238400727510452271e-02,-1.574756354093551636e-01,3.257663920521736145e-02,-5.313703045248985291e-02,-2.161292880773544312e-01,1.806751340627670288e-01
1.805647611618041992e-01,-1.724231392145156860e-01,-1.393968146294355392e-02,6.258402764797210693e-02,-1.633654162287712097e-02,3.433041274547576904e-02,-5.121678858995437622e-02,-8.436346799135208130e-02,7.782689481973648071e-02,-1.465538749471306801e-03,-6.269513815641403198e-02,-2.092030048370361328e-01,1.219648718833923340e-01,-1.260837465524673462e-01,-1.551426500082015991e-01,9.219350665807723999e-02
3.296709060668945312e-01,-1.054548248648643494e-01,-7.319905608892440796e-02,-1.145260706543922424e-01,-7.582202553749084473e-02,9.175113588571548462e-02,4.566419869661331177e-02,-1.537024974822998047e-01,-8.407563716173171997e-02,-2.777859866619110107e-01,2.283526659011840820e-01,1.099251117557287216e-02,1.170732229948043823e-01,4.503433778882026672e-02,-2.001110017299652100e-01,4.229312017560005188e-02
2.032698839902877808e-01,-7.462689280509948730e-02,1.318552903831005096e-02,-3.335115611553192139e-01,-3.099177181720733643e-01,-1.043066903948783875e-01,2.434773296117782593e-01,2.329427599906921387e-01,2.179224193096160889e-01,-3.381792008876800537e-01,1.508727371692657471e-01,3.655600175261497498e-02,-1.360740810632705688e-01,3.917933106422424316e-01,-1.968917399644851685e-01,3.148187398910522461e-01
2.474184632301330566e-01,-2.520489096641540527e-01,2.551643736660480499e-02,-8.094583451747894287e-02,-3.808651864528656006e-02,-1.909713149070739746e-01,8.169300854206085205e-02,2.692537903785705566e-01,6.429468840360641479e-02,-3.393744826316833496e-01,4.328492656350135803e-02,-3.696248307824134827e-02,9.526948630809783936e-02,6.980733573436737061e-02,-8.164355158805847168e-02,2.540684677660465240e-02
1.164770349860191345e-01,2.943150000646710396e-03,-1.032977029681205750e-01,-1.891607046127319336e-02,-6.318842619657516479e-02,-1.561764776706695557e-01,9.965679794549942017e-02,1.537414342164993286e-01,1.219391375780105591e-01,-9.485901892185211182e-02,-1.512086298316717148e-02,-9.095188975334167480e-02,-1.578701138496398926e-01,1.623717844486236572e-01,-9.459597617387771606e-02,6.662102043628692627e-02
1.419779509305953979e-01,-1.168819889426231384e-02,1.024776846170425415e-01,-3.261353448033332825e-02,1.470596641302108765e-01,-1.271440684795379639e-01,-2.870953083038330078e-02,-1.333451420068740845e-01,-3.482903540134429932e-02,-1.976279914379119873e-01,-8.246415108442306519e-02,2.587839365005493164e-01,9.366853535175323486e-02,1.582743674516677856e-01,-9.969342499971389771e-02,-1.613826155662536621e-01
-8.263760805130004883e-02,4.255975782871246338e-02,1.736496835947036743e-01,7.944824174046516418e-03,-3.214436396956443787e-02,-1.518979817628860474e-01,-2.504618167877197266e-01,-1.582242101430892944e-01,2.250009924173355103e-01,2.388085871934890747e-01,2.760802768170833588e-02,1.902127712965011597e-01,-4.167392104864120483e-02,9.544320404529571533e-02,4.761613532900810242e-02,-1.602086871862411499e-01
-3.541763871908187866e-02,8.434857428073883057e-02,1.590669751167297363e-01,-1.099865511059761047e-01,1.925872862339019775e-01,-2.299870252609252930e-01,-2.768961489200592041e-01,-1.964647471904754639e-01,-7.441372424364089966e-02,1.108872666954994202e-01,7.962565869092941284e-02,5.018139630556106567e-02,1.063720285892486572e-01,2.851151525974273682e-01,-3.552066534757614136e-02,-1.439652964472770691e-02
2.906645238399505615e-01,-1.338842362165451050e-01,2.514183819293975830e-01,2.165672779083251953e-01,2.584141492843627930e-01,-8.487068116664886475e-02,9.853887371718883514e-03,-2.332338243722915649e-01,-8.582208305597305298e-02,-4.051323831081390381e-01,-1.128188744187355042e-01,1.703435927629470825e-01,2.100072801113128662e-02,1.848072558641433716e-01,1.149613112211227417e-01,-8.440686017274856567e-02
-3.945454582571983337e-02,-1.884584575891494751e-01,3.458728268742561340e-02,-9.008929878473281860e-02,2.642152905464172363e-01,-1.420062873512506485e-02,-1.885657459497451782e-01,-2.421162426471710205e-01,7.436784356832504272e-02,-3.934757411479949951e-02,-1.265749335289001465e-01,3.319278955459594727e-01,-8.573251217603683472e-02,1.821066141128540039e-01,1.452446728944778442e-01,-3.481920957565307617e-01
2.729156911373138428e-01,-1.246675699949264526e-01,4.484303295612335205e-02,6.279130280017852783e-02,1.001542806625366211e-01,1.491707861423492432e-01,8.794496953487396240e-02,-1.823037303984165192e-02,-1.645508408546447754e-02,-8.142984658479690552e-02,-1.198782399296760559e-01,7.863816618919372559e-02,-2.494304925203323364e-01,-2.319145761430263519e-02,-2.418284118175506592e-02,-2.881316840648651123e-01
1.638171225786209106e-01,-1.718259751796722412e-01,9.480696171522140503e-02,-3.222190216183662415e-02,-1.604038476943969727e-02,1.157163158059120178e-01,5.935608409345149994e-03,-1.017747595906257629e-01,-1.498492993414402008e-02,-1.620729863643646240e-01,-1.589722037315368652e-01,2.339698076248168945e-01,-8.662278950214385986e-02,5.671055242419242859e-02,-2.249040827155113220e-02,-2.055935934185981750e-02
1.950012743473052979e-01,-1.940956115722656250e-01,-3.456428274512290955e-02,1.367797851562500000e-01,-4.195971041917800903e-02,1.538568288087844849e-01,-1.444513052701950073e-01,-7.715551555156707764e-02,-4.714021831750869751e-02,4.736637324094772339e-02,-8.581479638814926147e-02,-7.793734222650527954e-02,-5.359012261033058167e-02,1.598801016807556152e-01,-1.273986697196960449e-01,3.310885652899742126e-02
3.255500271916389465e-02,-6.450562924146652222e-02,5.482212081551551819e-02,2.394666671752929688e-01,3.955588117241859436e-02,1.559192389249801636e-01,-1.723052263259887695e-01,-2.488298527896404266e-02,1.385327577590942383e-01,1.177185103297233582e-01,-8.762899041175842285e-02,5.451954528689384460e-02,-1.802375763654708862e-01,2.143970727920532227e-01,-2.692732587456703186e-02,-2.012211596593260765e-03
-4.308694973587989807e-02,-4.911122098565101624e-02,1.308603137731552124e-01,1.713251173496246338e-01,-2.653790824115276337e-02,1.900691986083984375e-01,-6.056357920169830322e-02,1.685712859034538269e-02,8.125894516706466675e-02,1.038444414734840393e-01,1.268868707120418549e-02,2.579208649694919586e-02,-1.793600320816040039e-01,1.933222115039825439e-01,-6.444109976291656494e-02,-7.221081107854843140e-02
-1.317032426595687866e-01,-2.648373879492282867e-02,1.010721027851104736e-01,7.341682910919189453e-02,-1.409161835908889771e-01,5.286881700158119202e-02,-7.402055896818637848e-03,-3.298126161098480225e-02,6.789758801460266113e-02,1.410236805677413940e-01,-1.078642811626195908e-02,-9.630052745342254639e-02,-2.045891061425209045e-02,1.232258528470993042e-01,6.750971078872680664e-02,-2.174111604690551758e-01
-1.184175312519073486e-01,4.317899793386459351e-02,2.763314843177795410e-01,1.040829494595527649e-01,-1.746405512094497681e-01,1.257092505693435669e-01,5.594804883003234863e-02,1.055401414632797241e-01,5.131354928016662598e-02,1.796083152294158936e-01,3.105438128113746643e-02,-2.153649032115936279e-01,-1.750735044479370117e-01,1.320920586585998535e-01,8.285942487418651581e-03,-9.811361134052276611e-02
-1.275565568357706070e-02,1.053538918495178223e-01,1.972219049930572510e-01,-8.653828501701354980e-02,-2.375773489475250244e-01,1.906915009021759033e-01,2.602574229240417480e-01,-1.474669016897678375e-02,1.942736804485321045e-01,8.315519988536834717e-02,-1.949415914714336395e-02,-1.968332231044769287e-01,-4.887732863426208496e-02,1.243682876229286194e-01,-8.587671909481287003e-04,1.585204899311065674e-01
1.306672394275665283e-01,8.227007836103439331e-02,1.302710324525833130e-01,-1.620953902602195740e-03,-1.088286712765693665e-01,3.401649296283721924e-01,3.571162819862365723e-01,3.067515604197978973e-02,8.656512945890426636e-02,8.249210566282272339e-02,1.673590689897537231e-01,5.099079385399818420e-02,1.246218476444482803e-02,7.864019274711608887e-02,1.750657260417938232e-01,2.355191260576248169e-01
-5.672092363238334656e-02,1.219541132450103760e-01,1.922741681337356567e-01,5.463695153594017029e-03,9.146685898303985596e-02,2.377792298793792725e-01,3.991092145442962646e-01,1.184847801923751831e-01,1.976633965969085693e-01,2.094845622777938843e-01,-3.235983103513717651e-02,8.552669547498226166e-03,6.919165700674057007e-02,-2.909439429640769958e-02,3.328347802162170410e-01,2.429963648319244385e-01
4.534199088811874390e-02,2.679572999477386475e-01,2.828055918216705322e-01,1.246703341603279114e-01,1.851353198289871216e-01,3.768815696239471436e-01,2.750677466392517090e-01,1.187334358692169189e-01,1.481974720954895020e-01,1.064767092466354370e-01,8.735691756010055542e-02,2.299058884382247925e-01,3.136216849088668823e-02,8.013300597667694092e-02,5.261992216110229492e-01,2.590822577476501465e-01
1.370251774787902832e-01,2.456074655055999756e-01,3.195842206478118896e-01,1.169563457369804382e-01,1.169600561261177063e-01,3.427879512310028076e-01,1.332693845033645630e-01,1.794577836990356445e-01,1.291909664869308472e-01,2.203222662210464478e-01,1.769382953643798828e-01,1.036070659756660461e-01,2.013672888278961182e-02,2.022545039653778076e-01,3.848181962966918945e-01,4.467660784721374512e-01
1.673379391431808472e-01,5.299849063158035278e-02,2.357584387063980103e-01,2.244004458189010620e-01,1.125524267554283142e-01,1.770345866680145264e-01,-4.905192181468009949e-02,5.956781655550003052e-02,1.066492497920989990e-01,1.551988124847412109e-01,1.178226247429847717e-01,6.526989396661520004e-03,1.121808513998985291e-01,1.043398678302764893e-01,1.839108914136886597e-01,3.057185113430023193e-01
2.711528539657592773e-01,-4.831553995609283447e-02,2.665225267410278320e-01,2.252584248781204224e-01,-1.459828466176986694e-01,6.498264521360397339e-02,-3.651406243443489075e-02,5.716702342033386230e-02,1.888123154640197754e-01,3.744201734662055969e-02,1.374637633562088013e-01,-1.810801178216934204e-01,3.895100951194763184e-02,2.997755706310272217e-01,2.217204719781875610e-01,3.585434854030609131e-01
1.879513561725616455e-01,1.927574723958969116e-02,3.128517791628837585e-02,1.797485053539276123e-01,-1.785643994808197021e-01,8.825742453336715698e-02,-1.111098565161228180e-02,-2.057415060698986053e-02,1.273479312658309937e-01,8.286164700984954834e-02,1.851064413785934448e-01,-1.638022437691688538e-02,4.520536586642265320e-02,1.466746330261230469e-01,5.946107953786849976e-02,3.871335089206695557e-01
